{"learner":{"attributes":{"scikit_learn":"{\"_estimator_type\": \"classifier\"}"},"feature_names":["UsingIP","LongURL","ShortURL","Symbol@","Redirecting//","PrefixSuffix-","SubDomains","HTTPS","DomainRegLen","Favicon","NonStdPort","HTTPSDomainURL","RequestURL","AnchorURL","LinksInScriptTags","ServerFormHandler","InfoEmail","AbnormalURL","WebsiteForwarding","StatusBarCust","DisableRightClick","UsingPopupWindow","IframeRedirection","AgeofDomain","DNSRecording","WebsiteTraffic","PageRank","GoogleIndex","LinksPointingToPage","StatsReport"],"feature_types":["int","int","int","int","int","int","int","int","int","int","int","int","int","int","int","int","int","int","int","int","int","int","int","int","int","int","int","int","int","int"],"gradient_booster":{"model":{"gbtree_model_param":{"num_parallel_tree":"1","num_trees":"100"},"iteration_indptr":[0,1,2,3,4,5,6,7,8,9,10,11,12,13,14,15,16,17,18,19,20,21,22,23,24,25,26,27,28,29,30,31,32,33,34,35,36,37,38,39,40,41,42,43,44,45,46,47,48,49,50,51,52,53,54,55,56,57,58,59,60,61,62,63,64,65,66,67,68,69,70,71,72,73,74,75,76,77,78,79,80,81,82,83,84,85,86,87,88,89,90,91,92,93,94,95,96,97,98,99,100],"tree_info":[0,0,0,0,0,0,0,0,0,0,0,0,0,0,0,0,0,0,0,0,0,0,0,0,0,0,0,0,0,0,0,0,0,0,0,0,0,0,0,0,0,0,0,0,0,0,0,0,0,0,0,0,0,0,0,0,0,0,0,0,0,0,0,0,0,0,0,0,0,0,0,0,0,0,0,0,0,0,0,0,0,0,0,0,0,0,0,0,0,0,0,0,0,0,0,0,0,0,0,0],"trees":[{"base_weights":[9.740112E-4,-1.7953078E0,1.3411905E0,-6.750883E-1,-9.848706E-1,-1.6625059E0,1.4723912E0,-1.7224369E0,-2.0268941E-1,-1.8862238E0,4.111009E-1,1.1056683E0,1.6480602E0,-1.7732245E0,3.8374713E-1,-4.5183772E-1,5.112315E-1,8.3892E-1,-2.0771801E0,5.2160686E-1,5.422554E-1,1.3817587E0,5.213532E-1,-1.9856949E0,-1.5369239E0,-8.3442713E-4,-1.2183486E0,8.003238E-2,3.2187593E-1,-1.0619344E0,-6.5962183E-1,-1.6578554E-1,1.0872233E0,8.8397527E-1,1.5718396E0,-1.6181119E-1,-6.013534E-1,-4.775584E-1,1.5623698E-1,-2.9945582E-1,1.1172097E-1,-4.0399465E-1,5.432236E-2,-5.3241616E-1,9.245431E-2,-1.4787926E-1,5.009288E-1,1.4268948E-1,3.86726E-1,-9.687513E-3,3.834244E-1,4.2152816E-1,5.193238E-1],"categories":[],"categories_nodes":[],"categories_segments":[],"categories_sizes":[],"default_left":[0,0,0,0,0,0,0,0,0,0,0,0,0,0,0,0,0,0,0,0,0,0,0,0,0,0,0,0,0,0,0,0,0,0,0,0,0,0,0,0,0,0,0,0,0,0,0,0,0,0,0,0,0],"id":0,"left_children":[1,3,5,-1,7,9,11,13,15,17,-1,19,21,23,-1,25,-1,27,29,-1,31,33,-1,35,37,39,41,-1,-1,43,-1,45,47,49,51,-1,-1,-1,-1,-1,-1,-1,-1,-1,-1,-1,-1,-1,-1,-1,-1,-1,-1],"loss_changes":[5.259371E3,3.420005E2,4.9551538E2,0E0,1.943125E2,3.8432007E1,7.544092E1,2.8721802E1,7.91055E1,2.7566269E1,0E0,1.3867767E2,1.6937988E1,5.53656E0,0E0,5.0687454E1,0E0,2.4419713E-1,3.4237976E0,0E0,8.0662384E1,1.8369415E1,0E0,1.2769775E0,1.048465E1,3.5107082E1,9.995705E0,0E0,0E0,7.3086843E0,0E0,5.5818638E1,1.3954224E1,2.1704357E1,1.5461731E0,0E0,0E0,0E0,0E0,0E0,0E0,0E0,0E0,0E0,0E0,0E0,0E0,0E0,0E0,0E0,0E0,0E0,0E0],"parents":[2147483647,0,0,1,1,2,2,4,4,5,5,6,6,7,7,8,8,9,9,11,11,12,12,13,13,15,15,17,17,18,18,20,20,21,21,23,23,24,24,25,25,26,26,29,29,31,31,32,32,33,33,34,34],"right_children":[2,4,6,-1,8,10,12,14,16,18,-1,20,22,24,-1,26,-1,28,30,-1,32,34,-1,36,38,40,42,-1,-1,44,-1,46,48,50,52,-1,-1,-1,-1,-1,-1,-1,-1,-1,-1,-1,-1,-1,-1,-1,-1,-1,-1],"split_conditions":[1E0,0E0,0E0,-6.750883E-1,0E0,1E0,1E0,1E0,1E0,0E0,4.111009E-1,0E0,0E0,1E0,3.8374713E-1,1E0,5.112315E-1,1E0,1E0,5.2160686E-1,1E0,1E0,5.213532E-1,1E0,1E0,0E0,1E0,8.003238E-2,3.2187593E-1,1E0,-6.5962183E-1,1E0,1E0,0E0,1E0,-1.6181119E-1,-6.013534E-1,-4.775584E-1,1.5623698E-1,-2.9945582E-1,1.1172097E-1,-4.0399465E-1,5.432236E-2,-5.3241616E-1,9.245431E-2,-1.4787926E-1,5.009288E-1,1.4268948E-1,3.86726E-1,-9.687513E-3,3.834244E-1,4.2152816E-1,5.193238E-1],"split_indices":[7,13,13,0,14,5,25,5,5,28,0,25,14,25,0,8,0,6,19,0,6,12,0,22,1,6,15,0,0,12,0,13,24,6,6,0,0,0,0,0,0,0,0,0,0,0,0,0,0,0,0,0,0],"split_type":[0,0,0,0,0,0,0,0,0,0,0,0,0,0,0,0,0,0,0,0,0,0,0,0,0,0,0,0,0,0,0,0,0,0,0,0,0,0,0,0,0,0,0,0,0,0,0,0,0,0,0,0,0],"sum_hessian":[2.1826628E3,9.3250024E2,1.2501625E3,5.9607947E2,3.3642084E2,5.1832996E1,1.1983295E3,1.7252983E2,1.6389099E2,4.8624287E1,3.2087092E0,3.9047522E2,8.0785425E2,1.7006158E2,2.4682379E0,1.4562604E2,1.8264961E1,2.9618855E0,4.56624E1,1.8289642E2,2.0757881E2,2.0782562E2,6.000286E2,8.564786E1,8.4413734E1,9.2312096E1,5.331394E1,1.4809427E0,1.4809427E0,5.923771E0,3.973863E1,9.058433E1,1.1699448E2,5.8990887E1,1.4883475E2,1.4809427E0,8.416691E1,8.243915E1,1.9745903E0,2.4682379E1,6.7629715E1,4.887111E1,4.442828E0,3.7023568E0,2.221414E0,7.750267E1,1.3081661E1,2.9865679E1,8.71288E1,1.8018137E1,4.0972748E1,7.750267E1,7.133208E1],"tree_param":{"num_deleted":"0","num_feature":"30","num_nodes":"53","size_leaf_vector":"1"}},{"base_weights":[1.4639885E-2,-1.2935966E0,1.062403E0,-4.9068406E-1,-6.9787127E-1,-1.2073535E0,1.1685442E0,-1.2227838E0,-1.3966638E-1,-1.3745176E0,3.4222037E-1,8.574484E-1,1.3232626E0,-1.2601299E0,3.2187393E-1,-3.1905115E-1,4.1768417E-1,7.106021E-1,-1.5218337E0,4.2266726E-1,4.0651262E-1,1.0841943E0,4.2199308E-1,-6.154241E-1,-1.304324E0,-1.3924954E0,-4.830786E-2,6.6188715E-2,2.7553856E-1,-8.1266105E-1,-4.8197842E-1,1.6426894E-1,4.416786E-1,8.746943E-1,4.4357735E-1,-2.815644E-1,3.3546877E-1,-4.7949195E-1,-3.6500642E-1,1.2601025E-1,-5.248085E-1,-8.838155E-2,2.8582463E-1,-4.2417103E-1,5.883475E-2,-1.0264748E-1,1.8847522E-1,1.622465E-1,3.955826E-1],"categories":[],"categories_nodes":[],"categories_segments":[],"categories_sizes":[],"default_left":[0,0,0,0,0,0,0,0,0,0,0,0,0,0,0,0,0,0,0,0,0,0,0,0,0,0,0,0,0,0,0,0,0,0,0,0,0,0,0,0,0,0,0,0,0,0,0,0,0],"id":1,"left_children":[1,3,5,-1,7,9,11,13,15,17,-1,19,21,23,-1,25,-1,27,29,-1,31,33,-1,35,37,39,41,-1,-1,43,-1,45,-1,47,-1,-1,-1,-1,-1,-1,-1,-1,-1,-1,-1,-1,-1,-1,-1],"loss_changes":[2.7950696E3,1.8362659E2,2.7419238E2,0E0,9.7252396E1,2.1615814E1,5.095398E1,1.6032227E1,4.503596E1,1.5866905E1,0E0,8.951584E1,1.2845337E1,4.010956E0,0E0,4.2384686E1,0E0,1.9028354E-1,1.415947E0,0E0,5.1576397E1,1.44700775E1,0E0,8.181526E0,2.1057434E0,1.974199E1,2.9296732E1,0E0,0E0,4.4363894E0,0E0,3.890701E1,0E0,1.8116173E1,0E0,0E0,0E0,0E0,0E0,0E0,0E0,0E0,0E0,0E0,0E0,0E0,0E0,0E0,0E0],"parents":[2147483647,0,0,1,1,2,2,4,4,5,5,6,6,7,7,8,8,9,9,11,11,12,12,13,13,15,15,17,17,18,18,20,20,21,21,23,23,24,24,25,25,26,26,29,29,31,31,33,33],"right_children":[2,4,6,-1,8,10,12,14,16,18,-1,20,22,24,-1,26,-1,28,30,-1,32,34,-1,36,38,40,42,-1,-1,44,-1,46,-1,48,-1,-1,-1,-1,-1,-1,-1,-1,-1,-1,-1,-1,-1,-1,-1],"split_conditions":[1E0,0E0,0E0,-4.9068406E-1,0E0,1E0,1E0,1E0,1E0,0E0,3.4222037E-1,0E0,0E0,1E0,3.2187393E-1,1E0,4.1768417E-1,1E0,1E0,4.2266726E-1,1E0,0E0,4.2199308E-1,0E0,1E0,1E0,1E0,6.6188715E-2,2.7553856E-1,1E0,-4.8197842E-1,1E0,4.416786E-1,1E0,4.4357735E-1,-2.815644E-1,3.3546877E-1,-4.7949195E-1,-3.6500642E-1,1.2601025E-1,-5.248085E-1,-8.838155E-2,2.8582463E-1,-4.2417103E-1,5.883475E-2,-1.0264748E-1,1.8847522E-1,1.622465E-1,3.955826E-1],"split_indices":[7,13,13,0,14,5,25,5,5,28,0,25,14,21,0,27,0,6,19,0,13,15,0,15,27,11,13,0,0,14,0,6,0,6,0,0,0,0,0,0,0,0,0,0,0,0,0,0,0],"split_type":[0,0,0,0,0,0,0,0,0,0,0,0,0,0,0,0,0,0,0,0,0,0,0,0,0,0,0,0,0,0,0,0,0,0,0,0,0,0,0,0,0,0,0,0,0,0,0,0,0],"sum_hessian":[2.0371196E3,9.05846E2,1.1312736E3,5.743535E2,3.3149246E2,5.007524E1,1.0811984E3,1.702273E2,1.6126517E2,4.7134296E1,2.9409432E0,3.6128864E2,7.1990967E2,1.6794626E2,2.2810402E0,1.4506982E2,1.6195353E1,2.8580236E0,4.4276276E1,1.6157578E2,1.9971288E2,1.8977971E2,5.3013E2,1.1731535E1,1.5621472E2,2.8385122E1,1.166847E2,1.4653325E0,1.3926913E0,5.857325E0,3.841895E1,1.6366592E2,3.6046947E1,1.26044044E2,6.373566E1,1.0275064E1,1.45647E0,3.1915022E1,1.242997E2,4.640244E0,2.3744879E1,9.421098E1,2.2473715E1,3.4183488E0,2.438976E0,7.837915E1,8.528677E1,7.3204475E1,5.283957E1],"tree_param":{"num_deleted":"0","num_feature":"30","num_nodes":"49","size_leaf_vector":"1"}},{"base_weights":[1.6626604E-2,-1.0546352E0,8.9551556E-1,-4.1640782E-1,-5.2851343E-1,-9.9542904E-1,9.8539966E-1,-9.5800906E-1,-9.7326115E-2,-1.1405288E0,2.9736108E-1,8.326897E-1,3.8470072E-1,-9.8894644E-1,2.7999544E-1,-6.76769E-1,2.2352807E-1,6.1200625E-1,-1.2769772E0,6.4425176E-1,1.2547872E0,-1.1815144E0,-7.8885496E-1,-7.859017E-1,2.9370955E-1,-5.6652343E-1,4.851447E-1,5.481031E-2,2.4162929E-1,-6.773608E-1,-4.093248E-1,1.24949105E-1,8.9981693E-1,9.429388E-1,3.9903888E-1,-7.687366E-2,-3.5889465E-1,-3.8895032E-1,-1.9234124E-1,-4.387146E-1,-1.6760059E-1,-3.2997817E-1,3.1025935E-2,7.17289E-2,3.0023277E-1,-5.3641852E-2,-3.1124505E-1,-1.441888E-2,4.2504156E-1,1.6396616E-1,3.3629498E-1,8.497347E-2,3.8107687E-1],"categories":[],"categories_nodes":[],"categories_segments":[],"categories_sizes":[],"default_left":[0,0,0,0,0,0,0,0,0,0,0,0,0,0,0,0,0,0,0,0,0,0,0,0,0,0,0,0,0,0,0,0,0,0,0,0,0,0,0,0,0,0,0,0,0,0,0,0,0,0,0,0,0],"id":2,"left_children":[1,3,5,-1,7,9,11,13,15,17,-1,19,-1,21,-1,23,25,27,29,31,33,35,37,39,-1,41,43,-1,-1,45,-1,47,49,51,-1,-1,-1,-1,-1,-1,-1,-1,-1,-1,-1,-1,-1,-1,-1,-1,-1,-1,-1],"loss_changes":[1.6708505E3,1.3955353E2,1.666695E2,0E0,5.7657654E1,1.4025101E1,4.1153076E1,1.0057648E1,2.9289513E1,1.0861523E1,0E0,4.832541E1,0E0,5.005127E0,0E0,1.0907509E1,2.1279469E1,1.6182089E-1,1.1431961E0,5.6839462E1,3.2005615E0,7.412491E-1,5.0610733E0,7.359226E0,0E0,9.312492E0,9.514748E0,0E0,0E0,1.0720348E0,0E0,3.196137E1,2.1844345E1,8.348572E0,0E0,0E0,0E0,0E0,0E0,0E0,0E0,0E0,0E0,0E0,0E0,0E0,0E0,0E0,0E0,0E0,0E0,0E0,0E0],"parents":[2147483647,0,0,1,1,2,2,4,4,5,5,6,6,7,7,8,8,9,9,11,11,13,13,15,15,16,16,17,17,18,18,19,19,20,20,21,21,22,22,23,23,25,25,26,26,29,29,31,31,32,32,33,33],"right_children":[2,4,6,-1,8,10,12,14,16,18,-1,20,-1,22,-1,24,26,28,30,32,34,36,38,40,-1,42,44,-1,-1,46,-1,48,50,52,-1,-1,-1,-1,-1,-1,-1,-1,-1,-1,-1,-1,-1,-1,-1,-1,-1,-1,-1],"split_conditions":[1E0,0E0,0E0,-4.1640782E-1,0E0,1E0,1E0,1E0,1E0,0E0,2.9736108E-1,0E0,3.8470072E-1,1E0,2.7999544E-1,1E0,0E0,1E0,1E0,0E0,1E0,1E0,1E0,1E0,2.9370955E-1,1E0,1E0,5.481031E-2,2.4162929E-1,1E0,-4.093248E-1,1E0,1E0,1E0,3.9903888E-1,-7.687366E-2,-3.5889465E-1,-3.8895032E-1,-1.9234124E-1,-4.387146E-1,-1.6760059E-1,-3.2997817E-1,3.1025935E-2,7.17289E-2,3.0023277E-1,-5.3641852E-2,-3.1124505E-1,-1.441888E-2,4.2504156E-1,1.6396616E-1,3.3629498E-1,8.497347E-2,3.8107687E-1],"split_indices":[7,13,13,0,14,5,13,5,12,28,0,15,0,25,0,5,6,6,16,14,24,22,27,27,0,23,13,0,0,19,0,5,25,25,0,0,0,0,0,0,0,0,0,0,0,0,0,0,0,0,0,0,0],"split_type":[0,0,0,0,0,0,0,0,0,0,0,0,0,0,0,0,0,0,0,0,0,0,0,0,0,0,0,0,0,0,0,0,0,0,0,0,0,0,0,0,0,0,0,0,0,0,0,0,0,0,0,0,0],"sum_hessian":[1.7726276E3,7.9879315E2,9.738344E2,4.8795157E2,3.1084155E2,4.3732548E1,9.301018E2,1.5511417E2,1.5572739E2,4.115273E1,2.579818E0,6.167304E2,3.1337146E2,1.5308716E2,2.0270076E0,5.510389E1,1.006235E2,2.7208624E0,3.8431866E1,4.2812695E2,1.8860342E2,7.551076E1,7.75764E1,5.218948E1,2.9144077E0,2.4741524E1,7.588197E1,1.4491158E0,1.2717466E0,6.0042205E0,3.2427647E1,1.4169496E2,2.86432E2,3.932971E1,1.4927371E2,1.4772073E0,7.4033554E1,1.5732661E1,6.184374E1,1.1755973E1,4.043351E1,1.3417105E1,1.1324419E1,5.236039E1,2.3521585E1,3.1457505E0,2.85847E0,1.2580879E2,1.58861685E1,1.1161828E2,1.7481372E2,1.3661301E1,2.5668407E1],"tree_param":{"num_deleted":"0","num_feature":"30","num_nodes":"53","size_leaf_vector":"1"}},{"base_weights":[1.527113E-2,-9.0101916E-1,7.661986E-1,-3.7636682E-1,-4.134789E-1,-8.6092E-1,8.426628E-1,-4.965892E-1,3.5202956E-1,-9.9416465E-1,2.6437977E-1,5.4292274E-1,1.0147712E0,-8.037612E-1,-1.8742675E-1,5.328554E-1,-1.129488E0,1.1459405E0,1.5583588E-1,7.682425E-1,1.1158539E0,-9.9713105E-1,-6.172657E-1,-6.398247E-2,-1.2982411E0,4.5421563E-2,2.1519575E-1,-5.361797E-1,-3.6801016E-1,6.3446474E-1,3.5294527E-1,-9.07679E-3,1.1498294E0,2.8181309E-1,9.8441833E-1,9.65858E-1,3.4939662E-1,-2.539353E-1,-3.6494356E-1,-2.7802712E-1,-1.2264819E-1,-7.6541685E-2,2.2213319E-1,3.4204665E-1,-5.392842E-1,-3.169698E-1,9.530734E-2,-3.0846924E-1,3.212717E-1,-3.4596723E-2,4.1599795E-1,9.0797774E-2,3.5589075E-1,-5.779979E-2,2.5053084E-1,1.5347543E-1,3.1691387E-1,1.6083664E-1,3.2606328E-1],"categories":[],"categories_nodes":[],"categories_segments":[],"categories_sizes":[],"default_left":[0,0,0,0,0,0,0,0,0,0,0,0,0,0,0,0,0,0,0,0,0,0,0,0,0,0,0,0,0,0,0,0,0,0,0,0,0,0,0,0,0,0,0,0,0,0,0,0,0,0,0,0,0,0,0,0,0,0,0],"id":3,"left_children":[1,3,5,-1,7,9,11,13,-1,15,-1,17,19,21,23,25,27,29,31,33,35,37,39,41,43,-1,-1,45,-1,47,-1,49,51,53,55,57,-1,-1,-1,-1,-1,-1,-1,-1,-1,-1,-1,-1,-1,-1,-1,-1,-1,-1,-1,-1,-1,-1,-1],"loss_changes":[1.0409043E3,1.16926636E2,1.0416641E2,0E0,3.855375E1,9.653671E0,4.044055E1,2.589637E1,0E0,7.9573326E0,0E0,6.7976105E1,1.1692749E1,4.3350906E0,1.8839977E1,1.4309251E-1,1.246666E0,1.0344391E0,2.9350506E1,1.5459686E1,1.4733887E0,1.1441498E0,4.298456E0,1.9448715E1,1.8792759E1,0E0,0E0,3.190496E0,0E0,7.3377957E0,0E0,2.3072338E1,4.2819214E-1,1.2616966E1,2.971367E0,4.2536087E0,0E0,0E0,0E0,0E0,0E0,0E0,0E0,0E0,0E0,0E0,0E0,0E0,0E0,0E0,0E0,0E0,0E0,0E0,0E0,0E0,0E0,0E0,0E0],"parents":[2147483647,0,0,1,1,2,2,4,4,5,5,6,6,7,7,9,9,11,11,12,12,13,13,14,14,15,15,16,16,17,17,18,18,19,19,20,20,21,21,22,22,23,23,24,24,27,27,29,29,31,31,32,32,33,33,34,34,35,35],"right_children":[2,4,6,-1,8,10,12,14,-1,16,-1,18,20,22,24,26,28,30,32,34,36,38,40,42,44,-1,-1,46,-1,48,-1,50,52,54,56,58,-1,-1,-1,-1,-1,-1,-1,-1,-1,-1,-1,-1,-1,-1,-1,-1,-1,-1,-1,-1,-1,-1,-1],"split_conditions":[1E0,0E0,0E0,-3.7636682E-1,1E0,1E0,1E0,0E0,3.5202956E-1,0E0,2.6437977E-1,0E0,0E0,1E0,0E0,1E0,1E0,1E0,1E0,1E0,1E0,1E0,1E0,0E0,0E0,4.5421563E-2,2.1519575E-1,1E0,-3.6801016E-1,0E0,3.5294527E-1,1E0,1E0,1E0,1E0,1E0,3.4939662E-1,-2.539353E-1,-3.6494356E-1,-2.7802712E-1,-1.2264819E-1,-7.6541685E-2,2.2213319E-1,3.4204665E-1,-5.392842E-1,-3.169698E-1,9.530734E-2,-3.0846924E-1,3.212717E-1,-3.4596723E-2,4.1599795E-1,9.0797774E-2,3.5589075E-1,-5.779979E-2,2.5053084E-1,1.5347543E-1,3.1691387E-1,1.6083664E-1,3.2606328E-1],"split_indices":[7,13,13,0,5,5,25,14,0,28,0,25,14,25,7,6,22,27,13,12,0,26,0,15,28,0,0,12,0,6,0,5,19,28,27,28,0,0,0,0,0,0,0,0,0,0,0,0,0,0,0,0,0,0,0,0,0,0,0],"split_type":[0,0,0,0,0,0,0,0,0,0,0,0,0,0,0,0,0,0,0,0,0,0,0,0,0,0,0,0,0,0,0,0,0,0,0,0,0,0,0,0,0,0,0,0,0,0,0,0,0,0,0,0,0,0,0,0,0,0,0],"sum_hessian":[1.5107905E3,6.803815E2,8.304091E2,3.934791E2,2.8690234E2,3.681193E1,7.935972E2,2.7327722E2,1.3625104E1,3.4595387E1,2.2165427E0,2.909827E2,5.026145E2,1.362774E2,1.3699982E2,2.577103E0,3.2018284E1,1.1299484E2,1.7798785E2,1.4865732E2,3.5395718E2,6.477161E1,7.15058E1,1.2424962E2,1.2750202E1,1.4335237E0,1.1435791E0,5.4248505E0,2.6593433E1,7.5943666E0,1.0540048E2,1.5351001E2,2.4477854E1,4.6447292E1,1.0221002E2,9.1994385E1,2.619628E2,4.127608E1,2.3495527E1,2.7390276E1,4.4115524E1,1.0094485E2,2.3304771E1,1.949208E0,1.0800994E1,3.2231424E0,2.201708E0,1.2970577E0,6.297309E0,1.4350366E2,1.0006344E1,1.3941321E0,2.3083721E1,2.5355345E1,2.1091946E1,1.4571926E1,8.76381E1,2.1407454E1,7.058694E1],"tree_param":{"num_deleted":"0","num_feature":"30","num_nodes":"59","size_leaf_vector":"1"}},{"base_weights":[1.5240777E-2,-7.785599E-1,6.6376305E-1,-3.5192993E-1,-3.200317E-1,-7.6255393E-1,7.289696E-1,-3.835665E-1,3.249429E-1,-8.8930315E-1,2.3810722E-1,5.699643E-1,1.095919E0,-9.7119296E-1,-2.5160965E-1,4.675115E-1,-1.0292245E0,3.8183784E-1,1.0690532E0,8.698267E-1,3.3570096E-1,-8.417399E-2,-1.1330792E0,-6.323393E-1,1.5550928E-2,3.7655998E-2,1.9366781E-1,-3.4575766E-1,-4.706135E-1,-2.791892E-2,6.301473E-1,7.1209455E-1,3.5027942E-1,2.2950807E-1,3.1417042E-1,-3.0766094E-1,7.075818E-2,-1.7766204E-1,-3.5044825E-1,-3.2827562E-1,8.8270776E-2,-5.1543534E-2,3.4900445E-1,8.393582E-2,-2.7915E-1,-1.4018801E-1,1.1125966E-1,1.0342494E-1,2.6179487E-1,4.6752132E-2,3.2954738E-1,-2.5514114E-1,2.7107975E-1],"categories":[],"categories_nodes":[],"categories_segments":[],"categories_sizes":[],"default_left":[0,0,0,0,0,0,0,0,0,0,0,0,0,0,0,0,0,0,0,0,0,0,0,0,0,0,0,0,0,0,0,0,0,0,0,0,0,0,0,0,0,0,0,0,0,0,0,0,0,0,0,0,0],"id":4,"left_children":[1,3,5,-1,7,9,11,13,-1,15,-1,17,19,21,23,25,27,29,31,33,-1,35,37,39,41,-1,-1,-1,43,45,47,49,-1,51,-1,-1,-1,-1,-1,-1,-1,-1,-1,-1,-1,-1,-1,-1,-1,-1,-1,-1,-1],"loss_changes":[6.5991504E2,1.0389902E2,6.617035E1,0E0,2.430379E1,6.8860645E0,3.876895E1,1.9690475E1,0E0,6.070942E0,0E0,4.401506E1,8.631897E-2,6.6241684E0,2.1501583E1,1.2844324E-1,1.3175259E0,3.5137123E1,3.7050781E0,2.406456E0,0E0,2.7431567E0,5.7556152E-2,3.7622402E1,2.711192E1,0E0,0E0,0E0,2.528601E0,2.3161629E1,1.4576904E1,6.3765736E0,0E0,5.3808465E0,0E0,0E0,0E0,0E0,0E0,0E0,0E0,0E0,0E0,0E0,0E0,0E0,0E0,0E0,0E0,0E0,0E0,0E0,0E0],"parents":[2147483647,0,0,1,1,2,2,4,4,5,5,6,6,7,7,9,9,11,11,12,12,13,13,14,14,15,15,16,16,17,17,18,18,19,19,21,21,22,22,23,23,24,24,28,28,29,29,30,30,31,31,33,33],"right_children":[2,4,6,-1,8,10,12,14,-1,16,-1,18,20,22,24,26,28,30,32,34,-1,36,38,40,42,-1,-1,-1,44,46,48,50,-1,52,-1,-1,-1,-1,-1,-1,-1,-1,-1,-1,-1,-1,-1,-1,-1,-1,-1,-1,-1],"split_conditions":[1E0,0E0,0E0,-3.5192993E-1,1E0,1E0,1E0,1E0,3.249429E-1,0E0,2.3810722E-1,0E0,1E0,1E0,1E0,1E0,1E0,0E0,1E0,0E0,3.3570096E-1,1E0,1E0,1E0,0E0,3.7655998E-2,1.9366781E-1,-3.4575766E-1,1E0,1E0,1E0,1E0,3.5027942E-1,1E0,3.1417042E-1,-3.0766094E-1,7.075818E-2,-1.7766204E-1,-3.5044825E-1,-3.2827562E-1,8.8270776E-2,-5.1543534E-2,3.4900445E-1,8.393582E-2,-2.7915E-1,-1.4018801E-1,1.1125966E-1,1.0342494E-1,2.6179487E-1,4.6752132E-2,3.2954738E-1,-2.5514114E-1,2.7107975E-1],"split_indices":[7,13,13,0,5,5,13,27,0,28,0,15,27,11,25,6,14,14,24,6,0,19,10,6,15,0,0,0,22,23,25,25,0,12,0,0,0,0,0,0,0,0,0,0,0,0,0,0,0,0,0,0,0],"split_type":[0,0,0,0,0,0,0,0,0,0,0,0,0,0,0,0,0,0,0,0,0,0,0,0,0,0,0,0,0,0,0,0,0,0,0,0,0,0,0,0,0,0,0,0,0,0,0,0,0,0,0,0,0],"sum_hessian":[1.2798888E3,5.753957E2,7.0449316E2,3.084403E2,2.6695535E2,3.0331528E1,6.741617E2,2.5608658E2,1.0868783E1,2.844349E1,1.8880382E0,4.721322E2,2.0202946E2,4.579475E1,2.1029182E2,2.4401515E0,2.6003338E1,3.4416705E2,1.2796515E2,2.229984E1,1.7972961E2,7.3024707E0,3.849228E1,8.6151184E1,1.2414064E2,1.4191842E0,1.0209672E0,2.0430548E1,5.5727887E0,1.3020015E2,2.1396689E2,2.9463953E1,9.85012E1,5.33563E0,1.6964212E1,1.2934399E0,6.009031E0,3.433708E0,3.5058575E1,5.737023E1,2.8780954E1,1.07451E2,1.6689642E1,2.2663658E0,3.3064232E0,6.1865696E1,6.833445E1,9.940279E1,1.145641E2,1.2652629E1,1.6811325E1,1.9499345E0,3.3856955E0],"tree_param":{"num_deleted":"0","num_feature":"30","num_nodes":"53","size_leaf_vector":"1"}},{"base_weights":[1.3412019E-2,-6.7658234E-1,5.6949514E-1,-3.3591288E-1,-2.4980137E-1,4.0336496E-1,1.0328801E0,-5.547446E-1,7.843286E-4,2.3139367E-1,9.639541E-1,7.834897E-1,3.1800136E-1,-7.1641266E-1,-2.8335047E-1,-1.6077568E-1,5.991869E-1,9.696695E-2,3.4442472E-1,-1.2837358E-1,9.902779E-1,1.9241734E-1,2.926581E-1,-3.1996584E-1,-3.3454773E-1,-9.381446E-2,-3.3195588E-1,-3.2280263E-1,5.7509995E-1,8.1971127E-1,-3.5664287E-1,-1.4700757E-1,4.9588534E-1,6.092651E-1,3.3254808E-1,-1.8298131E-1,2.4915029E-1,-3.4336835E-1,1.3515793E-2,4.1646354E-2,-1.895815E-1,-2.12644E-1,5.4468293E-2,2.732729E-1,-3.8053623E-1,-3.5975048E-1,2.98093E-1,-1.2273552E-1,1.0979911E-1,8.021825E-2,2.513099E-1,3.4305077E-2,3.116034E-1],"categories":[],"categories_nodes":[],"categories_segments":[],"categories_sizes":[],"default_left":[0,0,0,0,0,0,0,0,0,0,0,0,0,0,0,0,0,0,0,0,0,0,0,0,0,0,0,0,0,0,0,0,0,0,0,0,0,0,0,0,0,0,0,0,0,0,0,0,0,0,0,0,0],"id":5,"left_children":[1,3,5,-1,7,9,11,13,15,17,19,21,-1,23,25,27,29,31,-1,-1,33,35,-1,-1,37,39,-1,41,43,45,-1,47,49,51,-1,-1,-1,-1,-1,-1,-1,-1,-1,-1,-1,-1,-1,-1,-1,-1,-1,-1,-1],"loss_changes":[4.1874548E2,9.182909E1,4.610408E1,0E0,1.905702E1,4.2818825E1,2.4395752E-1,4.732708E0,1.3427432E1,4.215249E1,4.252342E0,2.0159683E0,0E0,8.981693E0,6.7063823E0,1.3225531E1,1.2616453E1,2.9290483E1,0E0,0E0,3.9574509E0,3.5817316E0,0E0,0E0,1.0771978E1,4.666146E0,0E0,1.770359E1,1.3595704E1,1.0628996E1,0E0,2.5301125E1,8.691633E0,5.529333E0,0E0,0E0,0E0,0E0,0E0,0E0,0E0,0E0,0E0,0E0,0E0,0E0,0E0,0E0,0E0,0E0,0E0,0E0,0E0],"parents":[2147483647,0,0,1,1,2,2,4,4,5,5,6,6,7,7,8,8,9,9,10,10,11,11,13,13,14,14,15,15,16,16,17,17,20,20,21,21,24,24,25,25,27,27,28,28,29,29,31,31,32,32,33,33],"right_children":[2,4,6,-1,8,10,12,14,16,18,20,22,-1,24,26,28,30,32,-1,-1,34,36,-1,-1,38,40,-1,42,44,46,-1,48,50,52,-1,-1,-1,-1,-1,-1,-1,-1,-1,-1,-1,-1,-1,-1,-1,-1,-1,-1,-1],"split_conditions":[1E0,0E0,1E0,-3.3591288E-1,0E0,0E0,1E0,1E0,1E0,1E0,0E0,0E0,3.1800136E-1,1E0,0E0,1E0,0E0,1E0,3.4442472E-1,-1.2837358E-1,1E0,1E0,2.926581E-1,-3.1996584E-1,1E0,1E0,-3.3195588E-1,1E0,1E0,1E0,-3.5664287E-1,1E0,1E0,1E0,3.3254808E-1,-1.8298131E-1,2.4915029E-1,-3.4336835E-1,1.3515793E-2,4.1646354E-2,-1.895815E-1,-2.12644E-1,5.4468293E-2,2.732729E-1,-3.8053623E-1,-3.5975048E-1,2.98093E-1,-1.2273552E-1,1.0979911E-1,8.021825E-2,2.513099E-1,3.4305077E-2,3.116034E-1],"split_indices":[7,13,13,0,14,15,27,28,13,5,13,6,0,12,7,1,7,6,0,0,24,12,0,0,0,12,0,28,28,19,0,28,25,25,0,0,0,0,0,0,0,0,0,0,0,0,0,0,0,0,0,0,0],"split_type":[0,0,0,0,0,0,0,0,0,0,0,0,0,0,0,0,0,0,0,0,0,0,0,0,0,0,0,0,0,0,0,0,0,0,0,0,0,0,0,0,0,0,0,0,0,0,0,0,0,0,0,0,0],"sum_hessian":[1.0893478E3,4.8604315E2,6.033046E2,2.3765845E2,2.4838469E2,4.454683E2,1.5783635E2,1.1149283E2,1.3689186E2,3.4197406E2,1.03494225E2,1.8414307E1,1.3942204E2,6.8843414E1,4.2649414E1,1.0836595E2,2.8525911E1,2.9920352E2,4.2770557E1,1.6378444E0,1.0185638E2,5.006562E0,1.3407744E1,3.4978172E1,3.3865242E1,3.557271E1,7.076706E0,8.927131E1,1.9094646E1,2.5876013E1,2.6498973E0,1.8604918E2,1.13154335E2,2.5576473E1,7.627991E1,2.2373402E0,2.769222E0,1.0163211E1,2.370203E1,2.5353985E1,1.0218721E1,5.0339222E1,3.8932087E1,1.658037E1,2.514276E0,1.5849197E0,2.4291094E1,1.2326935E2,6.277983E1,6.8887596E1,4.426674E1,1.2470284E1,1.3106188E1],"tree_param":{"num_deleted":"0","num_feature":"30","num_nodes":"53","size_leaf_vector":"1"}},{"base_weights":[1.1648518E-2,-1.0415442E0,3.0575243E-1,-1.0560333E0,1.9721113E-1,-2.0140366E-1,5.3885996E-1,-5.707615E-1,-3.2229102E-1,-2.4470761E-1,2.9506335E-1,3.950232E-1,9.795167E-1,-2.819223E-1,1.289681E-1,-7.8770715E-1,-1.3647969E-1,2.510157E-1,9.2035186E-1,7.066308E-1,3.0343962E-1,-5.973418E-2,-9.4760627E-1,1.5396938E-2,-5.0648046E-1,1.4684121E-1,3.2787478E-1,5.173865E-1,3.19174E-1,1.6762754E-1,2.7337515E-1,-1.8756291E-1,1.07738204E-1,-1.1470009E-1,-2.9710045E-1,-1.2626088E-1,6.2492903E-2,-2.3654224E-1,1.6300927E-1,-4.669328E-2,1.11984074E-1,2.5087846E-2,2.967249E-1,-1.350324E-1,2.2954477E-1],"categories":[],"categories_nodes":[],"categories_segments":[],"categories_sizes":[],"default_left":[0,0,0,0,0,0,0,0,0,0,0,0,0,0,0,0,0,0,0,0,0,0,0,0,0,0,0,0,0,0,0,0,0,0,0,0,0,0,0,0,0,0,0,0,0],"id":6,"left_children":[1,3,5,7,-1,9,11,13,-1,15,-1,17,19,-1,-1,21,23,25,27,29,-1,31,33,35,37,39,-1,41,-1,43,-1,-1,-1,-1,-1,-1,-1,-1,-1,-1,-1,-1,-1,-1,-1],"loss_changes":[2.9240952E2,5.766876E0,8.734686E1,1.2018433E0,0E0,1.2201598E1,3.1673447E1,3.9342105E0,0E0,1.3155196E1,0E0,2.8745064E1,3.6460876E-1,0E0,0E0,4.284773E0,1.0650118E1,2.6325386E1,4.1951294E0,1.6442404E0,0E0,2.0682333E0,3.583336E-1,1.1469639E1,1.6753756E1,1.8544235E1,0E0,4.7244005E0,0E0,2.4515631E0,0E0,0E0,0E0,0E0,0E0,0E0,0E0,0E0,0E0,0E0,0E0,0E0,0E0,0E0,0E0],"parents":[2147483647,0,0,1,1,2,2,3,3,5,5,6,6,7,7,9,9,11,11,12,12,15,15,16,16,17,17,18,18,19,19,21,21,22,22,23,23,24,24,25,25,27,27,29,29],"right_children":[2,4,6,8,-1,10,12,14,-1,16,-1,18,20,-1,-1,22,24,26,28,30,-1,32,34,36,38,40,-1,42,-1,44,-1,-1,-1,-1,-1,-1,-1,-1,-1,-1,-1,-1,-1,-1,-1],"split_conditions":[0E0,1E0,1E0,0E0,1.9721113E-1,1E0,1E0,1E0,-3.2229102E-1,1E0,2.9506335E-1,0E0,1E0,-2.819223E-1,1.289681E-1,1E0,1E0,1E0,1E0,0E0,3.0343962E-1,0E0,1E0,1E0,1E0,0E0,3.2787478E-1,1E0,3.19174E-1,1E0,2.7337515E-1,-1.8756291E-1,1.07738204E-1,-1.1470009E-1,-2.9710045E-1,-1.2626088E-1,6.2492903E-2,-2.3654224E-1,1.6300927E-1,-4.669328E-2,1.11984074E-1,2.5087846E-2,2.967249E-1,-1.350324E-1,2.2954477E-1],"split_indices":[13,5,7,28,0,5,13,7,0,27,0,15,27,0,0,11,26,5,24,6,0,14,10,24,23,14,0,25,0,12,0,0,0,0,0,0,0,0,0,0,0,0,0,0,0],"split_type":[0,0,0,0,0,0,0,0,0,0,0,0,0,0,0,0,0,0,0,0,0,0,0,0,0,0,0,0,0,0,0,0,0,0,0,0,0,0,0,0,0,0,0,0,0],"sum_hessian":[9.4199554E2,2.050752E2,7.3692035E2,2.0371623E2,1.3589678E0,2.3209755E2,5.0482278E2,8.561266E0,1.9515497E2,2.246801E2,7.4174504E0,3.820218E2,1.2280099E2,6.2993364E0,2.2619295E0,3.629635E1,1.8838374E2,3.0098978E2,8.103203E1,1.5293235E1,1.0750776E2,6.7840695E0,2.9512278E1,1.3423984E2,5.4143913E1,2.6889218E2,3.2097584E1,2.2494812E1,5.8537212E1,4.708762E0,1.0584473E1,2.6771698E0,4.1068997E0,2.7731528E0,2.6739126E1,4.0796986E1,9.344285E1,4.287613E1,1.1267784E1,1.1524986E2,1.5364232E2,1.2331946E1,1.0162865E1,2.4365225E0,2.27224E0],"tree_param":{"num_deleted":"0","num_feature":"30","num_nodes":"45","size_leaf_vector":"1"}},{"base_weights":[1.0336866E-2,-1.0015597E0,2.4982774E-1,-1.0172939E0,1.8028535E-1,-1.5430605E-1,4.500396E-1,-3.1704956E-1,-6.846211E-1,-3.96919E-1,3.1104201E-2,1.6921663E-1,6.796223E-1,-3.2455128E-1,-1.6904865E-1,-5.609558E-1,-1.4519648E-1,1.10335775E-1,-8.3607876E-1,9.389751E-1,-1.2072651E-1,4.0125167E-1,8.485217E-1,2.6499748E-1,-5.011239E-1,-9.3429536E-1,-2.0879999E-1,1.8154213E-2,-2.9983428E-1,-2.8910268E-2,6.7926157E-1,2.6658678E-1,-3.7475234E-1,3.2027474E-1,9.91164E-1,-5.795615E-1,9.443062E-2,-6.4173736E-2,6.6863966E-1,5.149114E-1,2.887118E-1,1.2859367E-1,-2.7291805E-1,-1.38643E-1,-2.957628E-1,-3.124816E-1,3.185085E-2,-1.3871466E-1,7.0533395E-2,-2.053406E-1,1.3848472E-2,-3.0646962E-1,2.513448E-1,-2.3415063E-1,2.636634E-1,1.06395654E-1,3.0233395E-1,-4.0900442E-1,-1.8222673E-2,-7.1063084E-3,3.0773035E-1,-1.549387E-1,1.2573968E-1,1.3379951E-2,2.3424745E-1,-6.328422E-2,2.3262541E-1],"categories":[],"categories_nodes":[],"categories_segments":[],"categories_sizes":[],"default_left":[0,0,0,0,0,0,0,0,0,0,0,0,0,0,0,0,0,0,0,0,0,0,0,0,0,0,0,0,0,0,0,0,0,0,0,0,0,0,0,0,0,0,0,0,0,0,0,0,0,0,0,0,0,0,0,0,0,0,0,0,0,0,0,0,0,0,0],"id":7,"left_children":[1,3,5,7,-1,9,11,-1,13,15,17,19,21,-1,23,25,27,29,31,33,35,37,39,-1,41,43,45,47,-1,49,51,-1,-1,53,55,57,59,61,63,65,-1,-1,-1,-1,-1,-1,-1,-1,-1,-1,-1,-1,-1,-1,-1,-1,-1,-1,-1,-1,-1,-1,-1,-1,-1,-1,-1],"loss_changes":[2.0028958E2,4.5996246E0,5.4141163E1,1.341629E0,0E0,1.0004652E1,2.8713005E1,0E0,3.8141537E0,3.8948183E0,8.80711E0,4.5298923E1,1.1210709E1,0E0,3.8249853E0,7.4243374E0,5.508154E0,9.296646E0,8.758525E0,1.4748688E0,1.4660495E1,1.1824826E1,5.278084E0,0E0,3.4273272E0,2.2246933E-1,8.271227E0,3.6544034E0,0E0,4.7087355E0,7.076329E0,0E0,0E0,4.2495294E0,1.7892456E-1,1.9179718E1,1.1198849E1,7.967018E0,4.1807823E0,7.8837433E0,0E0,0E0,0E0,0E0,0E0,0E0,0E0,0E0,0E0,0E0,0E0,0E0,0E0,0E0,0E0,0E0,0E0,0E0,0E0,0E0,0E0,0E0,0E0,0E0,0E0,0E0,0E0],"parents":[2147483647,0,0,1,1,2,2,3,3,5,5,6,6,8,8,9,9,10,10,11,11,12,12,14,14,15,15,16,16,17,17,18,18,19,19,20,20,21,21,22,22,24,24,25,25,26,26,27,27,29,29,30,30,33,33,34,34,35,35,36,36,37,37,38,38,39,39],"right_children":[2,4,6,8,-1,10,12,-1,14,16,18,20,22,-1,24,26,28,30,32,34,36,38,40,-1,42,44,46,48,-1,50,52,-1,-1,54,56,58,60,62,64,66,-1,-1,-1,-1,-1,-1,-1,-1,-1,-1,-1,-1,-1,-1,-1,-1,-1,-1,-1,-1,-1,-1,-1,-1,-1,-1,-1],"split_conditions":[0E0,1E0,1E0,1E0,1.8028535E-1,0E0,1E0,-3.1704956E-1,1E0,1E0,0E0,0E0,0E0,-3.2455128E-1,0E0,1E0,0E0,1E0,0E0,1E0,1E0,1E0,1E0,2.6499748E-1,1E0,0E0,1E0,0E0,-2.9983428E-1,1E0,1E0,2.6658678E-1,-3.7475234E-1,0E0,1E0,1E0,0E0,1E0,1E0,1E0,2.887118E-1,1.2859367E-1,-2.7291805E-1,-1.38643E-1,-2.957628E-1,-3.124816E-1,3.185085E-2,-1.3871466E-1,7.0533395E-2,-2.053406E-1,1.3848472E-2,-3.0646962E-1,2.513448E-1,-2.3415063E-1,2.636634E-1,1.06395654E-1,3.0233395E-1,-4.0900442E-1,-1.8222673E-2,-7.1063084E-3,3.0773035E-1,-1.549387E-1,1.2573968E-1,1.3379951E-2,2.3424745E-1,-6.328422E-2,2.3262541E-1],"split_indices":[13,5,7,7,0,14,25,0,12,28,7,25,14,0,28,12,7,13,28,27,24,12,0,0,19,25,0,6,0,16,19,0,0,6,20,28,15,23,27,28,0,0,0,0,0,0,0,0,0,0,0,0,0,0,0,0,0,0,0,0,0,0,0,0,0,0,0],"split_type":[0,0,0,0,0,0,0,0,0,0,0,0,0,0,0,0,0,0,0,0,0,0,0,0,0,0,0,0,0,0,0,0,0,0,0,0,0,0,0,0,0,0,0,0,0,0,0,0,0,0,0,0,0,0,0,0,0,0,0,0,0,0,0,0,0,0,0],"sum_hessian":[8.244493E2,1.5717436E2,6.6727496E2,1.5600778E2,1.1665771E0,2.2113548E2,4.4613947E2,1.374904E2,1.8517372E1,9.5296875E1,1.258386E2,2.014568E2,2.4468266E2,9.838838E0,8.678534E0,5.6953957E1,3.834292E1,1.1610339E2,9.735209E0,5.4507786E1,1.4694902E2,9.3672516E1,1.5101015E2,1.6834689E0,6.9950647E0,2.6843077E1,3.011088E1,3.3009552E1,5.333369E0,9.403683E1,2.206657E1,1.6587384E0,8.07647E0,4.7953773E0,4.9712406E1,4.636957E1,1.0057945E2,3.4456413E1,5.9216103E1,3.9827805E1,1.1118234E2,2.1206064E0,4.8744583E0,3.6245732E0,2.3218504E1,7.6298695E0,2.248101E1,9.915836E0,2.3093714E1,8.828161E0,8.5208664E1,1.4175365E0,2.0649033E1,1.4805616E0,3.3148155E0,1.8331482E0,4.787926E1,1.7820354E1,2.854922E1,9.012391E1,1.0455541E1,1.7763926E1,1.6692486E1,9.236238E0,4.9979866E1,1.056907E1,2.9258736E1],"tree_param":{"num_deleted":"0","num_feature":"30","num_nodes":"67","size_leaf_vector":"1"}},{"base_weights":[7.611784E-3,-9.7235364E-1,2.0232092E-1,-9.897957E-1,1.6524605E-1,1.0884482E-1,3.1563067E-1,-3.1109127E-1,-6.224902E-1,-8.0219254E-2,4.1142878E-1,-3.0777323E-1,-1.3464312E-1,-4.4582468E-1,1.6838652E-1,2.8311005E-1,8.3738357E-1,2.3644166E-1,-4.431289E-1,-7.7968323E-1,-2.4614002E-1,-1.3732155E-1,4.1333583E-1,1.0690095E0,1.7944002E-1,9.603696E-1,2.5519875E-1,1.0318116E-1,-2.5591132E-1,1.08963594E-1,-2.78597E-1,1.6713859E-1,-1.2260097E-1,2.2678883E-1,-8.708019E-2,-3.327611E-2,1.8225527E-1,3.6438596E-1,1.0362465E-1,-9.606067E-2,1.1795201E-1,1.7343366E-1,3.041043E-1,2.3784795E-1,-2.3716116E-1],"categories":[],"categories_nodes":[],"categories_segments":[],"categories_sizes":[],"default_left":[0,0,0,0,0,0,0,0,0,0,0,0,0,0,0,0,0,0,0,0,0,0,0,0,0,0,0,0,0,0,0,0,0,0,0,0,0,0,0,0,0,0,0,0,0],"id":8,"left_children":[1,3,5,7,-1,9,-1,-1,11,13,15,-1,17,19,21,23,25,-1,27,29,31,33,35,37,39,41,43,-1,-1,-1,-1,-1,-1,-1,-1,-1,-1,-1,-1,-1,-1,-1,-1,-1,-1],"loss_changes":[1.3887343E2,3.75029E0,4.811355E1,1.4274673E0,0E0,3.1388138E1,0E0,0E0,3.0340476E0,3.0810926E1,1.1292107E1,0E0,2.7537427E0,8.951139E0,1.5184106E1,1.3138266E1,3.2147903E0,0E0,2.5422764E0,8.997999E0,1.1622408E1,1.2599244E1,1.1509909E1,1.5681667E0,1.5690106E1,2.1959686E-1,6.1305914E0,0E0,0E0,0E0,0E0,0E0,0E0,0E0,0E0,0E0,0E0,0E0,0E0,0E0,0E0,0E0,0E0,0E0,0E0],"parents":[2147483647,0,0,1,1,2,2,3,3,5,5,8,8,9,9,10,10,12,12,13,13,14,14,15,15,16,16,18,18,19,19,20,20,21,21,22,22,23,23,24,24,25,25,26,26],"right_children":[2,4,6,8,-1,10,-1,-1,12,14,16,-1,18,20,22,24,26,-1,28,30,32,34,36,38,40,42,44,-1,-1,-1,-1,-1,-1,-1,-1,-1,-1,-1,-1,-1,-1,-1,-1,-1,-1],"split_conditions":[0E0,1E0,1E0,1E0,1.6524605E-1,1E0,3.1563067E-1,-3.1109127E-1,1E0,1E0,0E0,-3.0777323E-1,0E0,1E0,0E0,0E0,1E0,2.3644166E-1,1E0,1E0,0E0,1E0,1E0,1E0,0E0,1E0,1E0,1.0318116E-1,-2.5591132E-1,1.08963594E-1,-2.78597E-1,1.6713859E-1,-1.2260097E-1,2.2678883E-1,-8.708019E-2,-3.327611E-2,1.8225527E-1,3.6438596E-1,1.0362465E-1,-9.606067E-2,1.1795201E-1,1.7343366E-1,3.041043E-1,2.3784795E-1,-2.3716116E-1],"split_indices":[13,5,5,7,0,6,0,0,12,25,15,0,28,7,14,25,18,0,19,11,25,21,0,13,7,24,1,0,0,0,0,0,0,0,0,0,0,0,0,0,0,0,0,0,0],"split_type":[0,0,0,0,0,0,0,0,0,0,0,0,0,0,0,0,0,0,0,0,0,0,0,0,0,0,0,0,0,0,0,0,0,0,0,0,0,0,0,0,0,0,0,0,0],"sum_hessian":[7.257858E2,1.19641205E2,6.061446E2,1.18632904E2,1.0083027E0,5.470924E2,5.9052177E1,1.0351472E2,1.5118182E1,3.371594E2,2.0993303E2,7.671431E0,7.4467516E0,1.3614626E2,2.0101315E2,1.6261113E2,4.7321896E1,1.4761729E0,5.9705787E0,4.986723E1,8.627902E1,8.9612274E1,1.1140088E2,1.7865452E1,1.4474568E2,3.853237E1,8.789522E0,2.0997634E0,3.870815E0,5.5846634E0,4.4282566E1,1.4110935E1,7.216809E1,1.2523821E1,7.708845E1,3.0225685E1,8.117519E1,1.4307692E1,3.557761E0,4.3217777E1,1.015279E2,6.1658163E0,3.2366554E1,5.9647884E0,2.8247342E0],"tree_param":{"num_deleted":"0","num_feature":"30","num_nodes":"45","size_leaf_vector":"1"}},{"base_weights":[7.0577036E-3,-9.4551533E-1,1.6361946E-1,-3.0638427E-1,-4.6351394E-1,8.67328E-2,3.0859232E-1,-2.915297E-1,1.903988E-2,-4.173563E-1,1.6929406E-1,-2.2319613E-1,2.4453251E-1,5.0673676E-1,-6.311895E-1,9.083122E-2,6.6731656E-1,-1.2823579E-1,5.716829E-1,-3.071817E-1,8.002827E-1,-8.3880836E-1,3.6426705E-1,9.603341E-3,5.2467966E-1,3.1493753E-2,8.071043E-1,-2.8294744E-3,2.2314936E-1,3.144882E-1,8.9576645E-3,-2.1088216E-2,-2.8110453E-1,-2.602574E-1,2.2628264E-1,2.0483752E-1,-1.3104088E-2,2.3866864E-2,2.6812565E-1,1.5249404E-1,-2.2415178E-1,-1.2147124E-1,2.6064104E-1],"categories":[],"categories_nodes":[],"categories_segments":[],"categories_sizes":[],"default_left":[0,0,0,0,0,0,0,0,0,0,0,0,0,0,0,0,0,0,0,0,0,0,0,0,0,0,0,0,0,0,0,0,0,0,0,0,0,0,0,0,0,0,0],"id":9,"left_children":[1,3,5,-1,7,9,-1,-1,11,13,15,-1,17,19,21,23,25,-1,27,-1,29,31,33,35,37,39,41,-1,-1,-1,-1,-1,-1,-1,-1,-1,-1,-1,-1,-1,-1,-1,-1],"loss_changes":[9.722551E1,2.887268E0,3.7146378E1,0E0,3.5333953E0,2.151456E1,0E0,0E0,1.6155618E0,1.4705609E1,1.7267784E1,0E0,1.8237534E0,7.2156606E0,1.2616505E1,1.353624E1,5.3250465E0,0E0,5.331855E-1,0E0,2.3582392E0,3.676834E0,5.9277196E0,1.1675859E1,9.880854E0,4.7944126E0,4.0390587E0,0E0,0E0,0E0,0E0,0E0,0E0,0E0,0E0,0E0,0E0,0E0,0E0,0E0,0E0,0E0,0E0],"parents":[2147483647,0,0,1,1,2,2,4,4,5,5,8,8,9,9,10,10,12,12,13,13,14,14,15,15,16,16,18,18,20,20,21,21,22,22,23,23,24,24,25,25,26,26],"right_children":[2,4,6,-1,8,10,-1,-1,12,14,16,-1,18,20,22,24,26,-1,28,-1,30,32,34,36,38,40,42,-1,-1,-1,-1,-1,-1,-1,-1,-1,-1,-1,-1,-1,-1,-1,-1],"split_conditions":[0E0,1E0,1E0,-3.0638427E-1,1E0,1E0,3.0859232E-1,-2.915297E-1,1E0,1E0,1E0,-2.2319613E-1,0E0,1E0,1E0,0E0,0E0,-1.2823579E-1,1E0,-3.071817E-1,1E0,1E0,1E0,1E0,1E0,1E0,1E0,-2.8294744E-3,2.2314936E-1,3.144882E-1,8.9576645E-3,-2.1088216E-2,-2.8110453E-1,-2.602574E-1,2.2628264E-1,2.0483752E-1,-1.3104088E-2,2.3866864E-2,2.6812565E-1,1.5249404E-1,-2.2415178E-1,-1.2147124E-1,2.6064104E-1],"split_indices":[13,7,5,0,12,27,0,0,11,17,13,0,14,19,26,15,25,0,25,0,1,21,0,2,25,26,20,0,0,0,0,0,0,0,0,0,0,0,0,0,0,0,0],"split_type":[0,0,0,0,0,0,0,0,0,0,0,0,0,0,0,0,0,0,0,0,0,0,0,0,0,0,0,0,0,0,0,0,0,0,0,0,0,0,0,0,0,0,0],"sum_hessian":[6.498856E2,9.102435E1,5.5886127E2,7.769299E1,1.3331363E1,5.142526E2,4.4608616E1,5.999047E0,7.332316E0,7.180179E1,4.4245084E2,1.148069E0,6.184247E0,1.323522E1,5.8566574E1,3.832523E2,5.9198547E1,1.9245403E0,4.2597065E0,1.7293687E0,1.1505851E1,4.8589745E1,9.976827E0,3.236741E2,5.9578194E1,1.0890147E1,4.83084E1,1.1895158E0,3.0701907E0,8.431084E0,3.074767E0,5.700034E0,4.288971E1,2.1047788E0,7.872048E0,2.2873592E1,3.008005E2,2.7557617E1,3.2020576E1,6.969527E0,3.9206204E0,2.0706341E0,4.6237766E1],"tree_param":{"num_deleted":"0","num_feature":"30","num_nodes":"43","size_leaf_vector":"1"}},{"base_weights":[6.093663E-3,-9.1803044E-1,1.2976222E-1,-3.0240706E-1,-4.1998574E-1,6.8040535E-2,3.0251843E-1,-2.7527374E-1,-2.73135E-3,-7.3842235E-2,3.074402E-1,1.9566034E-1,-2.153161E-1,6.52276E-1,-1.3620204E-1,1.7614622E-1,6.139374E-1,-2.2216667E-1,1.8065971E-1,9.336248E-1,-1.693864E-1,-7.067064E-1,4.428037E-2,-4.273346E-1,2.6372352E-1,2.1576759E-1,8.4069556E-1,-3.5689604E-2,1.5323326E-1,-7.7935465E-2,3.3665293E-1,1.7125936E-1,-3.6367327E-1,-4.0361074E-1,-4.294631E-2,-6.978623E-2,6.852596E-2,-2.4130401E-1,2.0946145E-1,5.1905144E-2,2.5215474E-1,-1.6940902E-1,1.3551715E-1,2.760099E-1,-6.964464E-2],"categories":[],"categories_nodes":[],"categories_segments":[],"categories_sizes":[],"default_left":[0,0,0,0,0,0,0,0,0,0,0,0,0,0,0,0,0,0,0,0,0,0,0,0,0,0,0,0,0,0,0,0,0,0,0,0,0,0,0,0,0,0,0,0,0],"id":10,"left_children":[1,3,5,-1,7,9,-1,-1,11,13,15,-1,17,19,21,23,25,-1,27,29,31,33,35,37,39,41,43,-1,-1,-1,-1,-1,-1,-1,-1,-1,-1,-1,-1,-1,-1,-1,-1,-1,-1],"loss_changes":[6.850554E1,2.7476883E0,2.8599602E1,0E0,2.6014464E0,1.6836523E1,0E0,0E0,1.2298297E0,1.4198848E1,7.312193E0,0E0,1.5187294E0,5.8953724E0,2.966438E1,7.0096827E0,4.775276E0,0E0,5.158123E-1,4.4861183E0,6.2323465E0,2.4722431E1,1.1248718E1,7.741276E0,5.8491826E0,4.1712227E0,3.1614227E0,0E0,0E0,0E0,0E0,0E0,0E0,0E0,0E0,0E0,0E0,0E0,0E0,0E0,0E0,0E0,0E0,0E0,0E0],"parents":[2147483647,0,0,1,1,2,2,4,4,5,5,8,8,9,9,10,10,12,12,13,13,14,14,15,15,16,16,18,18,19,19,20,20,21,21,22,22,23,23,24,24,25,25,26,26],"right_children":[2,4,6,-1,8,10,-1,-1,12,14,16,-1,18,20,22,24,26,-1,28,30,32,34,36,38,40,42,44,-1,-1,-1,-1,-1,-1,-1,-1,-1,-1,-1,-1,-1,-1,-1,-1,-1,-1],"split_conditions":[0E0,1E0,1E0,-3.0240706E-1,1E0,1E0,3.0251843E-1,-2.7527374E-1,0E0,1E0,1E0,1.9566034E-1,1E0,1E0,1E0,1E0,1E0,-2.2216667E-1,1E0,1E0,1E0,1E0,1E0,0E0,1E0,1E0,1E0,-3.5689604E-2,1.5323326E-1,-7.7935465E-2,3.3665293E-1,1.7125936E-1,-3.6367327E-1,-4.0361074E-1,-4.294631E-2,-6.978623E-2,6.852596E-2,-2.4130401E-1,2.0946145E-1,5.1905144E-2,2.5215474E-1,-1.6940902E-1,1.3551715E-1,2.760099E-1,-6.964464E-2],"split_indices":[13,7,5,0,12,6,0,0,28,2,26,0,28,1,0,27,0,0,6,16,17,28,12,15,13,12,18,0,0,0,0,0,0,0,0,0,0,0,0,0,0,0,0,0,0],"split_type":[0,0,0,0,0,0,0,0,0,0,0,0,0,0,0,0,0,0,0,0,0,0,0,0,0,0,0,0,0,0,0,0,0,0,0,0,0,0,0,0,0,0,0,0,0],"sum_hessian":[5.9738434E2,6.974977E1,5.276346E2,5.8208035E1,1.1541735E1,4.9400912E2,3.3625435E1,4.7171946E0,6.8245406E0,3.106127E2,1.8339641E2,1.1655985E0,5.6589417E0,2.3817823E1,2.867949E2,1.2949812E2,5.3898296E1,2.0583944E0,3.6005473E0,1.7641024E1,6.1767993E0,6.822385E1,2.1857104E2,1.5919554E1,1.1357857E2,2.0265383E1,3.363291E1,2.2227445E0,1.3778031E0,2.355356E0,1.5285668E1,3.8772264E0,2.299573E0,3.1330402E1,3.6893448E1,8.719206E1,1.3137898E2,1.213887E1,3.7806833E0,9.926769E1,1.4310874E1,4.381063E0,1.588432E1,3.1449633E1,2.18328E0],"tree_param":{"num_deleted":"0","num_feature":"30","num_nodes":"45","size_leaf_vector":"1"}},{"base_weights":[5.125793E-3,-8.8741267E-1,1.0185352E-1,-2.9876265E-1,-3.6682758E-1,5.276112E-2,2.9686028E-1,-2.5885645E-1,7.548933E-3,-1.7087562E-2,4.416186E-1,1.7809531E-1,-1.8344608E-1,-1.3872577E-1,1.9252312E-1,-1.3204338E-1,7.600497E-1,-2.0515005E-1,1.5532526E-1,-1.0223186E0,3.1327065E-2,4.6618608E-1,-6.321671E-2,-7.2497785E-1,3.7457603E-1,3.3314785E-1,2.9346076E-1,-5.67741E-2,1.3077012E-1,-1.5915424E-2,-3.952655E-1,-2.91983E-1,8.187236E-2,5.613712E-2,1.9545819E-1,-3.0126974E-1,1.5184428E-2,-3.2754195E-1,3.934554E-3,2.890534E-1,-6.849403E-2,1.5020296E-2,2.594922E-1],"categories":[],"categories_nodes":[],"categories_segments":[],"categories_sizes":[],"default_left":[0,0,0,0,0,0,0,0,0,0,0,0,0,0,0,0,0,0,0,0,0,0,0,0,0,0,0,0,0,0,0,0,0,0,0,0,0,0,0,0,0,0,0],"id":11,"left_children":[1,3,5,-1,7,9,-1,-1,11,13,15,-1,17,19,21,23,25,-1,27,29,31,33,35,37,39,41,-1,-1,-1,-1,-1,-1,-1,-1,-1,-1,-1,-1,-1,-1,-1,-1,-1],"loss_changes":[4.818307E1,2.715969E0,2.1888992E1,0E0,2.0478172E0,1.2994903E1,0E0,0E0,9.211257E-1,1.0386279E1,1.3407646E1,0E0,1.1633807E0,3.8751907E1,1.0500893E1,8.338582E0,4.0505733E0,0E0,5.207948E-1,1.1839939E1,5.2947124E1,3.6225815E0,8.429921E0,3.4567046E0,5.595949E0,2.5776353E0,0E0,0E0,0E0,0E0,0E0,0E0,0E0,0E0,0E0,0E0,0E0,0E0,0E0,0E0,0E0,0E0,0E0],"parents":[2147483647,0,0,1,1,2,2,4,4,5,5,8,8,9,9,10,10,12,12,13,13,14,14,15,15,16,16,18,18,19,19,20,20,21,21,22,22,23,23,24,24,25,25],"right_children":[2,4,6,-1,8,10,-1,-1,12,14,16,-1,18,20,22,24,26,-1,28,30,32,34,36,38,40,42,-1,-1,-1,-1,-1,-1,-1,-1,-1,-1,-1,-1,-1,-1,-1,-1,-1],"split_conditions":[0E0,1E0,1E0,-2.9876265E-1,1E0,0E0,2.9686028E-1,-2.5885645E-1,0E0,1E0,1E0,1.7809531E-1,1E0,1E0,1E0,1E0,1E0,-2.0515005E-1,1E0,1E0,1E0,0E0,1E0,1E0,1E0,1E0,2.9346076E-1,-5.67741E-2,1.3077012E-1,-1.5915424E-2,-3.952655E-1,-2.91983E-1,8.187236E-2,5.613712E-2,1.9545819E-1,-3.0126974E-1,1.5184428E-2,-3.2754195E-1,3.934554E-3,2.890534E-1,-6.849403E-2,1.5020296E-2,2.594922E-1],"split_indices":[13,7,5,0,12,15,0,0,28,28,7,0,28,0,8,25,24,0,3,16,24,14,16,6,23,25,0,0,0,0,0,0,0,0,0,0,0,0,0,0,0,0,0],"split_type":[0,0,0,0,0,0,0,0,0,0,0,0,0,0,0,0,0,0,0,0,0,0,0,0,0,0,0,0,0,0,0,0,0,0,0,0,0,0,0,0,0,0,0],"sum_hessian":[5.5605884E2,5.3570644E1,5.0248822E2,4.3578217E1,9.992426E0,4.771588E2,2.532941E1,3.7367158E0,6.25571E0,4.0531076E2,7.184805E1,1.0193752E0,5.236335E0,2.5669022E2,1.4862054E2,2.5854975E1,4.599308E1,1.7027268E0,3.533608E0,4.0619568E1,2.1607063E2,7.139695E1,7.7223595E1,1.171409E1,1.4140883E1,1.6409182E1,2.9583899E1,1.7320247E0,1.8015833E0,9.759209E0,3.0860361E1,4.129952E1,1.7477112E2,2.9296207E1,4.2100746E1,7.489306E0,6.973429E1,7.504945E0,4.2091455E0,6.8506446E0,7.2902393E0,1.1423061E1,4.9861193E0],"tree_param":{"num_deleted":"0","num_feature":"30","num_nodes":"43","size_leaf_vector":"1"}},{"base_weights":[3.8924054E-3,-8.542545E-1,8.0037124E-2,-2.9512358E-1,-3.2190913E-1,4.0871546E-2,2.911673E-1,-2.4234648E-1,1.0313032E-2,-1.486052E-1,1.623799E-1,-2.2801638E-1,1.291439E-1,-7.577896E-2,-8.392672E-1,7.714058E-2,6.900942E-1,7.210757E-2,-2.1737848E-1,-5.343589E-1,-4.9053994E-3,2.6039952E-1,-1.0682342E0,-4.2696156E-2,4.0913814E-1,2.7509797E-1,2.8434873E-1,-2.7485606E-1,-5.9650015E-2,-1.0106431E-1,3.2700684E-2,2.0271425E-1,-7.604377E-2,-1.9855118E-1,-3.8676885E-1,1.965575E-1,-3.8189646E-2,-4.8262063E-2,2.2314058E-1,2.6511738E-1,7.284994E-3],"categories":[],"categories_nodes":[],"categories_segments":[],"categories_sizes":[],"default_left":[0,0,0,0,0,0,0,0,0,0,0,0,0,0,0,0,0,0,0,0,0,0,0,0,0,0,0,0,0,0,0,0,0,0,0,0,0,0,0,0,0],"id":12,"left_children":[1,3,5,-1,7,9,-1,-1,11,13,15,17,-1,19,21,23,25,-1,-1,27,29,31,33,35,37,39,-1,-1,-1,-1,-1,-1,-1,-1,-1,-1,-1,-1,-1,-1,-1],"loss_changes":[3.4009E1,2.6073837E0,1.6631943E1,0E0,1.5880445E0,1.0589579E1,0E0,0E0,7.790337E-1,8.981404E0,1.2545376E1,1.3352768E0,0E0,5.3202085E0,4.572093E0,9.655822E0,3.891737E0,0E0,0E0,2.6252656E0,5.438897E0,9.701011E-1,4.320202E-1,1.0646884E1,1.23946E1,2.46414E0,0E0,0E0,0E0,0E0,0E0,0E0,0E0,0E0,0E0,0E0,0E0,0E0,0E0,0E0,0E0],"parents":[2147483647,0,0,1,1,2,2,4,4,5,5,8,8,9,9,10,10,11,11,13,13,14,14,15,15,16,16,19,19,20,20,21,21,22,22,23,23,24,24,25,25],"right_children":[2,4,6,-1,8,10,-1,-1,12,14,16,18,-1,20,22,24,26,-1,-1,28,30,32,34,36,38,40,-1,-1,-1,-1,-1,-1,-1,-1,-1,-1,-1,-1,-1,-1,-1],"split_conditions":[0E0,1E0,1E0,-2.9512358E-1,1E0,1E0,2.911673E-1,-2.4234648E-1,1E0,1E0,0E0,0E0,1.291439E-1,1E0,1E0,1E0,1E0,7.210757E-2,-2.1737848E-1,1E0,1E0,1E0,1E0,1E0,1E0,1E0,2.8434873E-1,-2.7485606E-1,-5.9650015E-2,-1.0106431E-1,3.2700684E-2,2.0271425E-1,-7.604377E-2,-1.9855118E-1,-3.8676885E-1,1.965575E-1,-3.8189646E-2,-4.8262063E-2,2.2314058E-1,2.6511738E-1,7.284994E-3],"split_indices":[13,7,5,0,12,7,0,0,6,18,15,6,0,27,17,26,24,0,0,12,24,26,26,17,0,1,0,0,0,0,0,0,0,0,0,0,0,0,0,0,0],"split_type":[0,0,0,0,0,0,0,0,0,0,0,0,0,0,0,0,0,0,0,0,0,0,0,0,0,0,0,0,0,0,0,0,0,0,0,0,0,0,0,0,0],"sum_hessian":[5.1841974E2,4.1418346E1,4.7700137E2,3.263265E1,8.785697E0,4.579082E2,1.9093159E1,2.9863105E0,5.7993865E0,1.7882715E2,2.7908105E2,3.9922168E0,1.80717E0,1.6277338E2,1.6053774E1,2.4125793E2,3.7823135E1,2.3199763E0,1.6722405E0,2.0913721E1,1.4185965E2,2.7429318E0,1.33108425E1,1.7791112E2,6.3346806E1,1.5282737E1,2.25404E1,8.972461E0,1.1941259E1,3.5740135E1,1.06119514E2,1.3427764E0,1.4001555E0,6.0958123E0,7.2150307E0,1.8506508E1,1.5940462E2,2.362579E1,3.972102E1,3.7236106E0,1.1559126E1],"tree_param":{"num_deleted":"0","num_feature":"30","num_nodes":"41","size_leaf_vector":"1"}},{"base_weights":[3.3387078E-3,-8.1855464E-1,6.3160464E-2,-2.911992E-1,-2.8893602E-1,3.2164272E-2,2.8505322E-1,-2.2592553E-1,1.3725732E-3,-3.058797E-1,8.418312E-2,-3.4302086E-1,2.595365E-1,3.0999476E-1,-4.643595E-1,3.5876572E-2,4.787092E-1,-1.7479226E-1,2.7289558E-2,-8.235627E-2,1.6155598E-1,7.110313E-1,-1.8745899E-1,-5.9639007E-1,3.3130068E-1,8.069047E-1,1.6118793E-2,3.0525436E-3,6.8558794E-1,2.6192993E-1,-3.5431113E-2,1.01696834E-1,-1.0910661E-1,-1.4288521E-1,-3.4392154E-1,-2.4004075E-1,2.1885653E-1,-3.4732717E-1,3.8349232E-1,1.3519883E-1,-8.86411E-3,-9.517221E-2,2.8684783E-1,-4.5795324E-3,2.2605428E-1],"categories":[],"categories_nodes":[],"categories_segments":[],"categories_sizes":[],"default_left":[0,0,0,0,0,0,0,0,0,0,0,0,0,0,0,0,0,0,0,0,0,0,0,0,0,0,0,0,0,0,0,0,0,0,0,0,0,0,0,0,0,0,0,0,0],"id":13,"left_children":[1,3,5,-1,7,9,-1,-1,11,13,15,17,19,21,23,25,27,-1,-1,-1,-1,29,31,33,35,37,39,41,43,-1,-1,-1,-1,-1,-1,-1,-1,-1,-1,-1,-1,-1,-1,-1,-1],"loss_changes":[2.4148182E1,2.4040413E0,1.2555448E1,0E0,1.1947484E0,7.821894E0,0E0,0E0,6.6234434E-1,5.9358416E0,7.320386E0,3.850955E-1,7.817738E-1,2.6757653E0,5.197669E0,5.228801E0,4.1227503E0,0E0,0E0,0E0,0E0,1.0793157E0,7.2445285E-1,2.1743174E0,3.9254875E0,9.423273E0,6.691032E0,4.4885974E0,1.4019804E0,0E0,0E0,0E0,0E0,0E0,0E0,0E0,0E0,0E0,0E0,0E0,0E0,0E0,0E0,0E0,0E0],"parents":[2147483647,0,0,1,1,2,2,4,4,5,5,8,8,9,9,10,10,11,11,12,12,13,13,14,14,15,15,16,16,21,21,22,22,23,23,24,24,25,25,26,26,27,27,28,28],"right_children":[2,4,6,-1,8,10,-1,-1,12,14,16,18,20,22,24,26,28,-1,-1,-1,-1,30,32,34,36,38,40,42,44,-1,-1,-1,-1,-1,-1,-1,-1,-1,-1,-1,-1,-1,-1,-1,-1],"split_conditions":[0E0,1E0,1E0,-2.911992E-1,1E0,1E0,2.8505322E-1,-2.2592553E-1,1E0,1E0,1E0,1E0,1E0,0E0,1E0,1E0,0E0,-1.7479226E-1,2.7289558E-2,-8.235627E-2,1.6155598E-1,1E0,0E0,1E0,1E0,1E0,0E0,0E0,1E0,2.6192993E-1,-3.5431113E-2,1.01696834E-1,-1.0910661E-1,-1.4288521E-1,-3.4392154E-1,-2.4004075E-1,2.1885653E-1,-3.4732717E-1,3.8349232E-1,1.3519883E-1,-8.86411E-3,-9.517221E-2,2.8684783E-1,-4.5795324E-3,2.2605428E-1],"split_indices":[13,7,5,0,12,27,0,0,25,11,13,6,3,1,26,20,14,0,0,0,0,2,28,14,7,12,25,1,4,0,0,0,0,0,0,0,0,0,0,0,0,0,0,0,0],"split_type":[0,0,0,0,0,0,0,0,0,0,0,0,0,0,0,0,0,0,0,0,0,0,0,0,0,0,0,0,0,0,0,0,0,0,0,0,0,0,0,0,0,0,0,0,0],"sum_hessian":[4.8909354E2,3.2323025E1,4.567705E2,2.4464054E1,7.85897E0,4.4234918E2,1.4421325E1,2.4106724E0,5.448298E0,5.8340946E1,3.8400824E2,2.1934793E0,3.2548187E0,1.1744424E1,4.659652E1,3.430905E2,4.091774E1,1.1925141E0,1.0009652E0,1.1223336E0,2.1324852E0,6.2646527E0,5.479771E0,4.0179623E1,6.416897E0,7.5767155E0,3.355138E2,1.2709879E1,2.8207859E1,5.1959853E0,1.0686672E0,1.1426835E0,4.3370876E0,3.4509727E1,5.669898E0,1.407785E0,5.009112E0,1.1844233E0,6.392292E0,3.1062502E1,3.044513E2,1.001236E1,2.69752E0,2.560834E0,2.5647026E1],"tree_param":{"num_deleted":"0","num_feature":"30","num_nodes":"45","size_leaf_vector":"1"}},{"base_weights":[3.3476367E-3,-7.795608E-1,4.9835775E-2,-2.8671795E-1,-2.6367903E-1,2.5680296E-2,2.7818486E-1,-2.098269E-1,-1.100808E-2,-1.0353692E-1,1.4222343E-1,-2.2753237E-1,1.02947034E-1,-6.2348E-1,-3.732947E-2,7.436702E-1,8.453592E-2,-2.1162342E-1,1.7657094E-1,-5.2566234E-2,-1.0010357E0,-1.8444134E-1,1.9620763E-1,1.0055598E0,-1.510076E-1,-4.2487422E-1,2.5976518E-1,-2.0142406E-2,1.0137006E-1,-2.1234612E-1,1.3714269E-1,-3.7669173E-1,-2.4058254E-2,-2.5014734E-1,-1.5960936E-2,9.398585E-2,-1.0215405E-1,9.7958714E-2,3.1864887E-1,1.704182E-1,-2.0245819E-1,4.1774947E-2,-2.7812287E-1,9.1659926E-2,-2.5871623E-1],"categories":[],"categories_nodes":[],"categories_segments":[],"categories_sizes":[],"default_left":[0,0,0,0,0,0,0,0,0,0,0,0,0,0,0,0,0,0,0,0,0,0,0,0,0,0,0,0,0,0,0,0,0,0,0,0,0,0,0,0,0,0,0,0,0],"id":14,"left_children":[1,3,5,-1,7,9,-1,-1,11,13,15,17,-1,19,21,23,25,-1,27,29,31,33,35,37,39,41,43,-1,-1,-1,-1,-1,-1,-1,-1,-1,-1,-1,-1,-1,-1,-1,-1,-1,-1],"loss_changes":[1.7212019E1,2.1569786E0,9.43634E0,0E0,8.872575E-1,6.57167E0,0E0,0E0,5.505467E-1,7.1043954E0,7.8947034E0,9.7904766E-1,0E0,4.9748526E0,6.3828163E0,4.8250065E0,1.8892029E1,0E0,1.4839777E-1,3.7769732E0,3.1778183E0,9.658564E0,4.6234264E0,2.5118637E-1,2.4120543E0,1.5493179E1,8.335774E0,0E0,0E0,0E0,0E0,0E0,0E0,0E0,0E0,0E0,0E0,0E0,0E0,0E0,0E0,0E0,0E0,0E0,0E0],"parents":[2147483647,0,0,1,1,2,2,4,4,5,5,8,8,9,9,10,10,11,11,13,13,14,14,15,15,16,16,18,18,19,19,20,20,21,21,22,22,23,23,24,24,25,25,26,26],"right_children":[2,4,6,-1,8,10,-1,-1,12,14,16,18,-1,20,22,24,26,-1,28,30,32,34,36,38,40,42,44,-1,-1,-1,-1,-1,-1,-1,-1,-1,-1,-1,-1,-1,-1,-1,-1,-1,-1],"split_conditions":[0E0,1E0,1E0,-2.8671795E-1,1E0,1E0,2.7818486E-1,-2.098269E-1,1E0,1E0,1E0,1E0,1.02947034E-1,1E0,1E0,0E0,1E0,-2.1162342E-1,1E0,1E0,0E0,1E0,1E0,1E0,0E0,1E0,1E0,-2.0142406E-2,1.0137006E-1,-2.1234612E-1,1.3714269E-1,-3.7669173E-1,-2.4058254E-2,-2.5014734E-1,-1.5960936E-2,9.398585E-2,-1.0215405E-1,9.7958714E-2,3.1864887E-1,1.704182E-1,-2.0245819E-1,4.1774947E-2,-2.7812287E-1,9.1659926E-2,-2.5871623E-1],"split_indices":[13,7,5,0,12,25,0,0,6,29,2,0,0,21,28,1,0,0,28,12,1,24,1,3,14,23,18,0,0,0,0,0,0,0,0,0,0,0,0,0,0,0,0,0,0],"split_type":[0,0,0,0,0,0,0,0,0,0,0,0,0,0,0,0,0,0,0,0,0,0,0,0,0,0,0,0,0,0,0,0,0,0,0,0,0,0,0,0,0,0,0,0,0],"sum_hessian":[4.708428E2,2.5507137E1,4.4533566E2,1.8378544E1,7.128594E0,4.3440604E2,1.0929616E1,1.9674714E0,5.161123E0,2.060546E2,2.2835144E2,3.4248428E0,1.7362797E0,2.2323746E1,1.8373085E2,1.8944614E1,2.0940683E2,1.2275555E0,2.1972873E0,9.339869E0,1.2983878E1,1.1285217E2,7.087867E1,1.4558981E1,4.385632E0,5.3231762E1,1.5617508E2,1.1077249E0,1.0895625E0,3.9164336E0,5.423435E0,9.886722E0,3.0971563E0,1.8072697E1,9.477948E1,5.8527893E1,1.23507805E1,1.6410553E0,1.2917926E1,1.8128413E0,2.5727909E0,2.541066E1,2.7821102E1,1.5075417E2,5.420904E0],"tree_param":{"num_deleted":"0","num_feature":"30","num_nodes":"45","size_leaf_vector":"1"}},{"base_weights":[6.763245E-4,-2.0113567E-1,1.3782763E-1,-2.8142157E-1,-1.3601595E-1,7.1500117E-1,7.766923E-2,-2.0820023E-2,-4.8085007E-1,7.6542147E-3,8.437395E-1,-1.317557E-1,2.852129E-1,4.769939E-2,-6.5484667E-1,-7.1855193E-1,6.795322E-2,2.270805E-1,-3.414546E-1,5.5212694E-1,2.8639984E-1,-1.34432195E-2,-6.2329704E-1,1.2493927E-1,7.1384907E-1,-2.7660176E-1,1.9371936E-1,-3.375982E-1,2.0064501E-1,-3.5364032E-1,-3.0800825E-1,-2.7475825E-1,3.1059632E-1,-7.119446E-3,2.3054536E-1,7.2974426E-1,-1.5326159E-1,2.5500092E-1,-8.5269713E-1,-2.3520929E-1,3.4956148E-1,3.2520851E-1,8.9335436E-1,-3.216859E-1,4.4953115E-2,1.5847987E-1,8.556823E-3,-2.6771238E-1,3.081273E-1,-1.647736E-1,1.76217E-1,-1.095803E-1,1.3991591E-1,-1.5417407E-1,1.6468231E-1,-1.0134564E-1,2.900496E-1,-2.679632E-1,-2.8053345E-2,-3.6232027E-3,-3.3829266E-1,-2.4215294E-1,2.2944385E-2,2.4408457E-1,2.8072378E-2,1.6197006E-1,-1.23765245E-1,2.971984E-1,1.4011371E-1],"categories":[],"categories_nodes":[],"categories_segments":[],"categories_sizes":[],"default_left":[0,0,0,0,0,0,0,0,0,0,0,0,0,0,0,0,0,0,0,0,0,0,0,0,0,0,0,0,0,0,0,0,0,0,0,0,0,0,0,0,0,0,0,0,0,0,0,0,0,0,0,0,0,0,0,0,0,0,0,0,0,0,0,0,0,0,0,0,0],"id":15,"left_children":[1,3,5,-1,7,9,11,13,15,17,19,21,23,25,27,29,31,-1,-1,33,-1,35,37,39,41,43,45,-1,47,-1,49,-1,51,53,-1,55,57,-1,59,61,63,65,67,-1,-1,-1,-1,-1,-1,-1,-1,-1,-1,-1,-1,-1,-1,-1,-1,-1,-1,-1,-1,-1,-1,-1,-1,-1,-1],"loss_changes":[1.2654637E1,8.75001E0,9.395845E0,0E0,6.7883463E0,2.3221607E0,1.08008175E1,5.6498103E0,5.633506E0,5.1084557E0,1.724205E-1,7.199465E0,8.476911E0,5.624837E0,5.330052E0,5.2976227E0,3.5911474E0,0E0,0E0,1.0134687E0,0E0,1.0598385E1,8.843861E0,7.5221467E0,2.062069E0,1.2694517E1,4.500801E0,0E0,5.7478485E0,0E0,4.035267E0,0E0,1.4189447E0,1.2162222E0,0E0,4.415122E0,3.7083373E0,0E0,4.905945E0,6.4662075E0,6.700116E0,2.159389E0,4.7049522E-1,0E0,0E0,0E0,0E0,0E0,0E0,0E0,0E0,0E0,0E0,0E0,0E0,0E0,0E0,0E0,0E0,0E0,0E0,0E0,0E0,0E0,0E0,0E0,0E0,0E0,0E0],"parents":[2147483647,0,0,1,1,2,2,4,4,5,5,6,6,7,7,8,8,9,9,10,10,11,11,12,12,13,13,14,14,15,15,16,16,19,19,21,21,22,22,23,23,24,24,25,25,26,26,28,28,30,30,32,32,33,33,35,35,36,36,38,38,39,39,40,40,41,41,42,42],"right_children":[2,4,6,-1,8,10,12,14,16,18,20,22,24,26,28,30,32,-1,-1,34,-1,36,38,40,42,44,46,-1,48,-1,50,-1,52,54,-1,56,58,-1,60,62,64,66,68,-1,-1,-1,-1,-1,-1,-1,-1,-1,-1,-1,-1,-1,-1,-1,-1,-1,-1,-1,-1,-1,-1,-1,-1,-1,-1],"split_conditions":[1E0,0E0,0E0,-2.8142157E-1,1E0,1E0,1E0,0E0,1E0,1E0,1E0,1E0,1E0,1E0,1E0,1E0,1E0,2.270805E-1,-3.414546E-1,0E0,2.8639984E-1,1E0,1E0,1E0,1E0,1E0,1E0,-3.375982E-1,1E0,-3.5364032E-1,1E0,-2.7475825E-1,1E0,1E0,2.3054536E-1,1E0,1E0,2.5500092E-1,0E0,1E0,0E0,1E0,1E0,-3.216859E-1,4.4953115E-2,1.5847987E-1,8.556823E-3,-2.6771238E-1,3.081273E-1,-1.647736E-1,1.76217E-1,-1.095803E-1,1.3991591E-1,-1.5417407E-1,1.6468231E-1,-1.0134564E-1,2.900496E-1,-2.679632E-1,-2.8053345E-2,-3.6232027E-3,-3.3829266E-1,-2.4215294E-1,2.2944385E-2,2.4408457E-1,2.8072378E-2,1.6197006E-1,-1.23765245E-1,2.971984E-1,1.4011371E-1],"split_indices":[7,13,25,0,26,4,25,7,6,17,0,14,26,24,6,25,12,0,0,14,0,21,11,12,0,28,25,0,25,0,23,0,11,6,0,12,29,0,6,8,6,14,8,0,0,0,0,0,0,0,0,0,0,0,0,0,0,0,0,0,0,0,0,0,0,0,0,0,0],"split_type":[0,0,0,0,0,0,0,0,0,0,0,0,0,0,0,0,0,0,0,0,0,0,0,0,0,0,0,0,0,0,0,0,0,0,0,0,0,0,0,0,0,0,0,0,0,0,0,0,0,0,0,0,0,0,0,0,0,0,0,0,0,0,0,0,0,0,0,0,0],"sum_hessian":[4.5519482E2,1.8399216E2,2.712027E2,1.3850111E1,1.7014204E2,2.4571623E1,2.4663106E2,1.283317E2,4.181035E1,3.9466095E0,2.0625013E1,1.22940926E2,1.2369014E2,1.1665006E2,1.1681633E1,2.895837E1,1.2851977E1,2.5914335E0,1.3551762E0,7.3307548E0,1.3294258E1,9.991827E1,2.3022665E1,9.0967476E1,3.2722656E1,3.593854E1,8.071152E1,7.333263E0,4.34837E0,1.2770453E1,1.6187918E1,1.9937314E0,1.0858246E1,2.314715E0,5.01604E0,1.5153334E1,8.476493E1,2.7372985E0,2.0285366E1,3.4924335E1,5.6043144E1,1.1227054E1,2.1495604E1,1.2011805E1,2.3926737E1,2.5953716E1,5.47578E1,1.8378888E0,2.5104814E0,1.305677E1,3.131147E0,1.7821459E0,9.0761E0,1.2506586E0,1.0640562E0,2.6765318E0,1.2476802E1,5.291089E0,7.947384E1,5.256874E0,1.5028492E1,1.1758059E1,2.3166275E1,1.9149868E1,3.6893276E1,8.904104E0,2.32295E0,1.6423134E1,5.07247E0],"tree_param":{"num_deleted":"0","num_feature":"30","num_nodes":"69","size_leaf_vector":"1"}},{"base_weights":[3.6209828E-4,-7.215216E-1,3.0954747E-2,-2.7507246E-1,-3.127152E-1,1.2622052E-2,2.679678E-1,-5.024074E-1,5.1723555E-2,-3.194449E-2,3.2143384E-1,-2.3510025E-1,-1.4891653E-1,2.837948E-1,-8.156669E-2,-8.778372E-2,6.199761E-1,-1.6807091E-1,7.512778E-2,-4.9105906E-1,5.574046E-1,-5.147094E-1,-5.369459E-2,-6.051433E-1,3.188073E-1,2.4483469E-1,2.722636E-1,-3.5667765E-1,1.5639776E-1,2.2840755E-1,2.2745052E-2,-2.447706E-1,1.7569013E-1,1.892992E-1,-2.817719E-2,-2.794899E-1,-9.340044E-3,-2.2388172E-1,1.6467158E-1,1.5215255E-1,-1.1712555E-1],"categories":[],"categories_nodes":[],"categories_segments":[],"categories_sizes":[],"default_left":[0,0,0,0,0,0,0,0,0,0,0,0,0,0,0,0,0,0,0,0,0,0,0,0,0,0,0,0,0,0,0,0,0,0,0,0,0,0,0,0,0],"id":16,"left_children":[1,3,5,-1,7,9,-1,11,-1,13,15,-1,17,19,21,23,25,-1,-1,27,29,31,33,35,37,39,-1,-1,-1,-1,-1,-1,-1,-1,-1,-1,-1,-1,-1,-1,-1],"loss_changes":[9.633856E0,1.1298885E0,6.6040125E0,0E0,7.5406945E-1,5.6637797E0,0E0,4.2710352E-1,0E0,5.6617713E0,6.3946056E0,0E0,7.411858E-1,1.0683752E1,3.7364385E0,4.9819984E0,3.0282164E0,0E0,0E0,1.0048518E1,3.5525827E0,6.6864095E0,8.15888E0,1.9132423E0,3.6943517E0,2.605105E0,0E0,0E0,0E0,0E0,0E0,0E0,0E0,0E0,0E0,0E0,0E0,0E0,0E0,0E0,0E0],"parents":[2147483647,0,0,1,1,2,2,4,4,5,5,7,7,9,9,10,10,12,12,13,13,14,14,15,15,16,16,19,19,20,20,21,21,22,22,23,23,24,24,25,25],"right_children":[2,4,6,-1,8,10,-1,12,-1,14,16,-1,18,20,22,24,26,-1,-1,28,30,32,34,36,38,40,-1,-1,-1,-1,-1,-1,-1,-1,-1,-1,-1,-1,-1,-1,-1],"split_conditions":[0E0,1E0,1E0,-2.7507246E-1,1E0,0E0,2.679678E-1,1E0,5.1723555E-2,1E0,1E0,-2.3510025E-1,1E0,1E0,1E0,1E0,1E0,-1.6807091E-1,7.512778E-2,1E0,1E0,1E0,1E0,1E0,1E0,1E0,2.722636E-1,-3.5667765E-1,1.5639776E-1,2.2840755E-1,2.2745052E-2,-2.447706E-1,1.7569013E-1,1.892992E-1,-2.817719E-2,-2.794899E-1,-9.340044E-3,-2.2388172E-1,1.6467158E-1,1.5215255E-1,-1.1712555E-1],"split_indices":[13,7,5,0,6,15,0,0,0,21,7,0,25,12,16,25,24,0,0,22,26,14,17,6,27,14,0,0,0,0,0,0,0,0,0,0,0,0,0,0,0],"split_type":[0,0,0,0,0,0,0,0,0,0,0,0,0,0,0,0,0,0,0,0,0,0,0,0,0,0,0,0,0,0,0,0,0,0,0,0,0,0,0,0,0],"sum_hessian":[4.34219E2,1.6735384E1,4.174836E2,1.0482463E1,6.25292E0,4.0978583E2,7.6977925E0,4.4696126E0,1.7833077E0,3.5888892E2,5.0896927E1,1.8114038E0,2.6582088E0,4.810218E1,3.107867E2,2.1766764E1,2.9130161E1,1.110995E0,1.5472137E0,1.234547E1,3.575671E1,1.7733576E1,2.9305316E2,9.363724E0,1.240304E1,1.3443787E1,1.5686375E1,7.2046876E0,5.1407824E0,2.4710712E1,1.1045996E1,1.4125547E1,3.6080275E0,1.5447991E1,2.7760516E2,5.571626E0,3.7920978E0,1.8049569E0,1.05980835E1,9.65725E0,3.7865362E0],"tree_param":{"num_deleted":"0","num_feature":"30","num_nodes":"41","size_leaf_vector":"1"}},{"base_weights":[1.4812456E-3,-6.7277807E-1,2.5900025E-2,-2.6747286E-1,-2.8278577E-1,-2.6611254E-1,6.890617E-2,-4.617246E-1,4.182424E-2,2.8085465E-2,-4.3380696E-1,2.7025765E-2,4.2678875E-1,-2.16566E-1,-4.206632E-2,-3.6478788E-1,4.768482E-1,-3.8097225E-2,-7.7775776E-1,-5.120231E-2,1.6186638E-1,-1.1970487E-1,5.7146055E-1,-2.3292337E-1,-1.8630373E-1,-1.6696702E-1,6.814473E-1,2.2471455E-1,-1.5744327E-1,-9.758349E-1,1.7337278E-1,-2.7418843E-1,3.0321723E-2,5.851583E-1,1.0293986E-1,1.9433805E-1,-4.409269E-1,-1.355886E-1,6.485405E-1,-2.4240811E-1,-9.7204605E-4,-1.4937003E-1,7.317576E-2,3.893435E-1,3.3005703E-2,2.8320793E-2,-2.0283364E-1,2.913556E-2,-3.5120574E-1,-1.3666326E-1,1.7439593E-1,2.4011767E-1,-2.2433455E-1,-7.3079154E-2,5.3365123E-2,2.5715008E-1,-2.463367E-2,-5.628309E-2,7.061808E-2,5.1869913E-3,-2.764812E-1,2.2687355E-1,7.083787E-2],"categories":[],"categories_nodes":[],"categories_segments":[],"categories_sizes":[],"default_left":[0,0,0,0,0,0,0,0,0,0,0,0,0,0,0,0,0,0,0,0,0,0,0,0,0,0,0,0,0,0,0,0,0,0,0,0,0,0,0,0,0,0,0,0,0,0,0,0,0,0,0,0,0,0,0,0,0,0,0,0,0,0,0],"id":17,"left_children":[1,3,5,-1,7,9,11,13,-1,15,17,19,21,-1,-1,23,25,27,29,31,33,35,37,-1,39,41,43,-1,45,47,49,51,53,55,57,-1,59,-1,61,-1,-1,-1,-1,-1,-1,-1,-1,-1,-1,-1,-1,-1,-1,-1,-1,-1,-1,-1,-1,-1,-1,-1,-1],"loss_changes":[6.9440966E0,1.0056815E0,5.129085E0,0E0,5.7524407E-1,2.5996735E0,5.3169994E0,3.1542385E-1,0E0,3.6966596E0,4.5253043E0,3.3767524E0,3.007711E0,0E0,0E0,6.7968464E-1,1.3994448E0,1.6786758E0,3.532568E0,3.6959043E0,2.870196E0,2.407962E0,2.62564E0,0E0,1.0379105E0,5.507153E-1,2.535178E0,0E0,2.056214E0,3.2343006E0,1.2721443E0,2.8287266E1,6.083881E0,2.6373868E0,4.05969E0,0E0,1.4836318E0,0E0,1.0610857E0,0E0,0E0,0E0,0E0,0E0,0E0,0E0,0E0,0E0,0E0,0E0,0E0,0E0,0E0,0E0,0E0,0E0,0E0,0E0,0E0,0E0,0E0,0E0,0E0],"parents":[2147483647,0,0,1,1,2,2,4,4,5,5,6,6,7,7,9,9,10,10,11,11,12,12,15,15,16,16,17,17,18,18,19,19,20,20,21,21,22,22,24,24,25,25,26,26,28,28,29,29,30,30,31,31,32,32,33,33,34,34,36,36,38,38],"right_children":[2,4,6,-1,8,10,12,14,-1,16,18,20,22,-1,-1,24,26,28,30,32,34,36,38,-1,40,42,44,-1,46,48,50,52,54,56,58,-1,60,-1,62,-1,-1,-1,-1,-1,-1,-1,-1,-1,-1,-1,-1,-1,-1,-1,-1,-1,-1,-1,-1,-1,-1,-1,-1],"split_conditions":[0E0,1E0,1E0,-2.6747286E-1,1E0,1E0,1E0,1E0,4.182424E-2,1E0,1E0,1E0,0E0,-2.16566E-1,-4.206632E-2,1E0,1E0,1E0,1E0,1E0,0E0,1E0,1E0,-2.3292337E-1,1E0,1E0,1E0,2.2471455E-1,1E0,1E0,1E0,0E0,1E0,0E0,0E0,1.9433805E-1,1E0,-1.355886E-1,1E0,-2.4240811E-1,-9.7204605E-4,-1.4937003E-1,7.317576E-2,3.893435E-1,3.3005703E-2,2.8320793E-2,-2.0283364E-1,2.913556E-2,-3.5120574E-1,-1.3666326E-1,1.7439593E-1,2.4011767E-1,-2.2433455E-1,-7.3079154E-2,5.3365123E-2,2.5715008E-1,-2.463367E-2,-5.628309E-2,7.061808E-2,5.1869913E-3,-2.764812E-1,2.2687355E-1,7.083787E-2],"split_indices":[13,7,27,0,6,24,13,0,0,25,25,6,25,0,0,7,28,11,26,0,25,24,20,0,29,23,23,0,8,16,23,6,24,15,7,0,26,0,8,0,0,0,0,0,0,0,0,0,0,0,0,0,0,0,0,0,0,0,0,0,0,0,0],"split_type":[0,0,0,0,0,0,0,0,0,0,0,0,0,0,0,0,0,0,0,0,0,0,0,0,0,0,0,0,0,0,0,0,0,0,0,0,0,0,0,0,0,0,0,0,0,0,0,0,0,0,0,0,0,0,0,0,0,0,0,0,0,0,0],"sum_hessian":[4.1970117E2,1.3740564E1,4.059606E2,7.9783297E0,5.762234E0,5.144696E1,3.5451364E2,3.981261E0,1.7809734E0,1.898056E1,3.24664E1,3.1833655E2,3.6177105E1,1.5122203E0,2.4690406E0,1.0220264E1,8.760296E0,1.5613773E1,1.6852627E1,2.0185196E2,1.1648457E2,7.6085615E0,2.8568544E1,2.077974E0,8.14229E0,2.1569424E0,6.6033535E0,1.361005E0,1.42527685E1,1.3926415E1,2.9262118E0,5.3407486E1,1.4844447E2,1.3143003E1,1.0334157E2,1.9449128E0,5.6636486E0,1.6603132E0,2.6908232E1,1.075556E0,7.0667343E0,1.0774106E0,1.0795318E0,2.565229E0,4.0381246E0,1.014482E1,4.107949E0,2.2174613E0,1.1708955E1,1.1053929E0,1.8208189E0,1.6126503E1,3.7280983E1,5.1743103E1,9.670137E1,9.134709E0,4.008294E0,3.2228592E1,7.111298E1,3.393113E0,2.270536E0,2.0675093E1,6.2331376E0],"tree_param":{"num_deleted":"0","num_feature":"30","num_nodes":"63","size_leaf_vector":"1"}},{"base_weights":[5.87172E-4,-1.4117995E-2,2.585317E-1,-6.7133117E-1,6.449814E-3,-2.5849432E-1,-3.3734733E-1,2.6547912E-1,-3.1232307E-2,-1.9392781E-1,-6.6848904E-2,-2.876225E-1,4.9608034E-1,-1.4799361E-1,6.314438E-2,-8.8498026E-2,5.3574808E-2,-9.122115E-1,4.2121902E-1,-3.9463514E-1,6.382884E-1,-3.2694137E-1,1.4017619E-1,2.404407E-1,-1.1679084E-1,-4.259292E-1,2.0371829E-1,2.4433936E-1,-2.570685E-1,4.3384023E-3,-2.6936206E-1,1.3375902E-1,3.418003E-1,-1.1654504E-1,2.2511132E-1,-3.6341882E-1,7.729156E-2,1.2779155E-1,-4.5803268E-2,2.9254176E-2,-1.6021249E-1],"categories":[],"categories_nodes":[],"categories_segments":[],"categories_sizes":[],"default_left":[0,0,0,0,0,0,0,0,0,0,0,0,0,0,0,0,0,0,0,0,0,0,0,0,0,0,0,0,0,0,0,0,0,0,0,0,0,0,0,0,0],"id":18,"left_children":[1,3,-1,5,7,-1,9,11,13,-1,15,17,19,21,23,-1,-1,25,27,29,31,33,35,37,39,-1,-1,-1,-1,-1,-1,-1,-1,-1,-1,-1,-1,-1,-1,-1,-1],"loss_changes":[5.165241E0,5.425683E0,0E0,4.8352623E-1,3.8138576E0,0E0,4.638285E-1,6.4715366E0,3.769913E0,0E0,2.9622853E-1,7.1286488E0,4.73421E0,7.9274125E0,6.071021E0,0E0,0E0,7.7596426E0,4.628143E0,1.1431886E0,2.470893E0,6.562767E0,9.718804E0,7.047753E0,8.518684E0,0E0,0E0,0E0,0E0,0E0,0E0,0E0,0E0,0E0,0E0,0E0,0E0,0E0,0E0,0E0,0E0],"parents":[2147483647,0,0,1,1,3,3,4,4,6,6,7,7,8,8,10,10,11,11,12,12,13,13,14,14,17,17,18,18,19,19,20,20,21,21,22,22,23,23,24,24],"right_children":[2,4,-1,6,8,-1,10,12,14,-1,16,18,20,22,24,-1,-1,26,28,30,32,34,36,38,40,-1,-1,-1,-1,-1,-1,-1,-1,-1,-1,-1,-1,-1,-1,-1,-1],"split_conditions":[1E0,0E0,2.585317E-1,1E0,1E0,-2.5849432E-1,0E0,1E0,0E0,-1.9392781E-1,1E0,1E0,1E0,1E0,1E0,-8.8498026E-2,5.3574808E-2,1E0,1E0,1E0,0E0,1E0,1E0,1E0,1E0,-4.259292E-1,2.0371829E-1,2.4433936E-1,-2.570685E-1,4.3384023E-3,-2.6936206E-1,1.3375902E-1,3.418003E-1,-1.1654504E-1,2.2511132E-1,-3.6341882E-1,7.729156E-2,1.2779155E-1,-4.5803268E-2,2.9254176E-2,-1.6021249E-1],"split_indices":[5,13,0,7,9,0,14,12,14,0,3,22,17,28,23,0,0,13,21,14,1,1,16,26,14,0,0,0,0,0,0,0,0,0,0,0,0,0,0,0,0],"split_type":[0,0,0,0,0,0,0,0,0,0,0,0,0,0,0,0,0,0,0,0,0,0,0,0,0,0,0,0,0,0,0,0,0,0,0,0,0,0,0,0,0],"sum_hessian":[4.0591144E2,4.0006375E2,5.8476834E0,1.11801195E1,3.8888364E2,6.115416E0,5.064703E0,4.8620182E1,3.4026346E2,1.7151585E0,3.3495445E0,1.4233523E1,3.4386658E1,1.518406E2,1.8842285E2,1.6312526E0,1.7182919E0,7.4139166E0,6.819607E0,4.4898114E0,2.9896847E1,9.358909E1,5.8251514E1,9.473801E1,9.368485E1,5.702748E0,1.7111685E0,5.4924655E0,1.3271413E0,3.012296E0,1.4775156E0,2.2966505E1,6.9303427E0,8.913651E1,4.452578E0,3.9130638E0,5.433845E1,6.430558E1,3.0432425E1,6.2401184E1,3.1283669E1],"tree_param":{"num_deleted":"0","num_feature":"30","num_nodes":"41","size_leaf_vector":"1"}},{"base_weights":[2.5093168E-4,-1.2736334E-1,8.521292E-2,-7.707622E-2,-6.871634E-1,6.23533E-1,3.7140556E-2,-3.09614E-1,4.378491E-2,-1.1336232E-1,-8.980835E-1,-9.476443E-2,7.657929E-1,-1.8310996E-2,6.0873044E-1,-7.891507E-1,-3.1236863E-2,-2.9741532E-1,2.1511318E-1,-9.5924504E-2,8.622971E-2,-4.972052E-1,-3.286124E-1,1.9435878E-1,-3.2030484E-1,4.513606E-1,2.6839226E-1,8.245077E-1,-4.342697E-2,2.0356514E-1,7.7200073E-1,-3.237329E-1,-4.8824617E-1,7.45596E-1,-1.17267236E-1,-2.922393E-1,6.6494592E-3,-5.6900024E-1,2.732494E-1,-1.6561763E-2,-2.3824276E-1,-5.7907593E-3,6.5433073E-1,2.8041467E-1,6.479505E-2,-1.7858598E-1,1.2459043E-1,2.3714566E-1,-4.4065312E-1,5.4064367E-2,2.4737768E-1,4.3488994E-2,-1.975629E-1,3.4281793E-1,1.4516784E-2,-9.672519E-3,-2.4465127E-1,8.895483E-2,-9.67559E-2,-3.8067383E-1,1.7364807E-1,-1.8288845E-1,9.8773204E-2,1.6101824E-2,2.4515362E-1,3.147413E-2,-9.071078E-2,-8.522185E-3,1.5914962E-1,-2.847728E-1,6.724495E-2],"categories":[],"categories_nodes":[],"categories_segments":[],"categories_sizes":[],"default_left":[0,0,0,0,0,0,0,0,0,0,0,0,0,0,0,0,0,0,0,0,0,0,0,0,0,0,0,0,0,0,0,0,0,0,0,0,0,0,0,0,0,0,0,0,0,0,0,0,0,0,0,0,0,0,0,0,0,0,0,0,0,0,0,0,0,0,0,0,0,0,0],"id":19,"left_children":[1,3,5,7,9,11,13,15,17,19,21,23,25,27,29,31,33,35,37,-1,-1,39,-1,-1,-1,41,-1,43,45,47,49,-1,51,53,55,-1,57,59,61,-1,-1,-1,63,-1,-1,65,67,-1,69,-1,-1,-1,-1,-1,-1,-1,-1,-1,-1,-1,-1,-1,-1,-1,-1,-1,-1,-1,-1,-1,-1],"loss_changes":[4.3291163E0,4.4394226E0,6.1797123E0,4.1605787E0,1.4748597E0,2.0740366E0,7.019253E0,6.7283697E0,5.790937E0,4.7621897E-1,1.9735003E-1,3.6741018E0,2.6301003E-1,4.3228865E0,1.1382575E0,1.0906763E0,2.2960846E0,6.831432E0,3.1549847E0,0E0,0E0,6.026044E-1,0E0,0E0,0E0,6.624608E-1,0E0,1.945076E-1,4.509876E0,2.988539E0,2.7466202E-1,0E0,1.2734628E0,8.946644E-1,1.791391E0,0E0,2.374031E0,4.6439195E0,3.2624836E0,0E0,0E0,0E0,4.2383718E-1,0E0,0E0,3.8893251E0,5.5228167E0,0E0,1.5554004E0,0E0,0E0,0E0,0E0,0E0,0E0,0E0,0E0,0E0,0E0,0E0,0E0,0E0,0E0,0E0,0E0,0E0,0E0,0E0,0E0,0E0,0E0],"parents":[2147483647,0,0,1,1,2,2,3,3,4,4,5,5,6,6,7,7,8,8,9,9,10,10,11,11,12,12,13,13,14,14,15,15,16,16,17,17,18,18,21,21,25,25,27,27,28,28,29,29,30,30,32,32,33,33,34,34,36,36,37,37,38,38,42,42,45,45,46,46,48,48],"right_children":[2,4,6,8,10,12,14,16,18,20,22,24,26,28,30,32,34,36,38,-1,-1,40,-1,-1,-1,42,-1,44,46,48,50,-1,52,54,56,-1,58,60,62,-1,-1,-1,64,-1,-1,66,68,-1,70,-1,-1,-1,-1,-1,-1,-1,-1,-1,-1,-1,-1,-1,-1,-1,-1,-1,-1,-1,-1,-1,-1],"split_conditions":[1E0,1E0,0E0,0E0,1E0,1E0,1E0,1E0,1E0,1E0,1E0,1E0,1E0,1E0,1E0,1E0,1E0,1E0,0E0,-9.5924504E-2,8.622971E-2,1E0,-3.286124E-1,1.9435878E-1,-3.2030484E-1,1E0,2.6839226E-1,1E0,1E0,1E0,1E0,-3.237329E-1,1E0,0E0,0E0,-2.922393E-1,1E0,0E0,1E0,-1.6561763E-2,-2.3824276E-1,-5.7907593E-3,1E0,2.8041467E-1,6.479505E-2,0E0,1E0,2.3714566E-1,1E0,5.4064367E-2,2.4737768E-1,4.3488994E-2,-1.975629E-1,3.4281793E-1,1.4516784E-2,-9.672519E-3,-2.4465127E-1,8.895483E-2,-9.67559E-2,-3.8067383E-1,1.7364807E-1,-1.8288845E-1,9.8773204E-2,1.6101824E-2,2.4515362E-1,3.147413E-2,-9.071078E-2,-8.522185E-3,1.5914962E-1,-2.847728E-1,6.724495E-2],"split_indices":[7,18,25,6,11,4,13,24,0,24,26,24,0,20,0,8,21,28,28,0,0,8,0,0,0,28,0,9,25,23,22,0,27,14,7,0,12,1,27,0,0,0,12,0,0,6,6,0,12,0,0,0,0,0,0,0,0,0,0,0,0,0,0,0,0,0,0,0,0,0,0],"split_type":[0,0,0,0,0,0,0,0,0,0,0,0,0,0,0,0,0,0,0,0,0,0,0,0,0,0,0,0,0,0,0,0,0,0,0,0,0,0,0,0,0,0,0,0,0,0,0,0,0,0,0,0,0,0,0,0,0,0,0,0,0,0,0,0,0,0,0,0,0,0,0],"sum_hessian":[3.9727695E2,1.5858327E2,2.3869368E2,1.4655577E2,1.2027495E1,1.8586716E1,2.2010696E2,4.958743E1,9.6968346E1,3.646038E0,8.381457E0,3.1277874E0,1.5458929E1,2.0152448E2,1.8582493E1,1.753924E1,3.2048187E1,3.2168617E1,6.479973E1,2.5401978E0,1.1058402E0,3.9254482E0,4.4560094E0,1.9633043E0,1.1644832E0,5.8023324E0,9.656597E0,4.910613E0,1.9661386E2,5.9827433E0,1.259975E1,7.61501E0,9.924231E0,2.4309206E0,2.9617268E1,9.289823E0,2.2878794E1,3.8662481E0,6.0933483E1,2.053972E0,1.8714762E0,2.0209332E0,3.781399E0,3.7037938E0,1.206819E0,1.0892661E2,8.768724E1,3.0117853E0,2.9709582E0,1.3896295E0,1.121012E1,2.1348906E0,7.7893395E0,1.1416358E0,1.2892848E0,2.7334833E1,2.2824337E0,1.22184305E1,1.0660364E1,2.3362055E0,1.5300428E0,3.0444124E0,5.7889072E1,1.0901212E0,2.691278E0,3.3151794E1,7.577482E1,6.435873E1,2.3328516E1,1.4408324E0,1.5301259E0],"tree_param":{"num_deleted":"0","num_feature":"30","num_nodes":"71","size_leaf_vector":"1"}},{"base_weights":[-2.4258938E-4,-5.750514E-1,1.5809128E-2,-2.4555455E-1,-2.60471E-1,-2.1920961E-1,4.969104E-2,-2.2249935E-2,-1.8329582E-1,-1.2527929E-3,-3.4027478E-1,-4.2062707E-2,1.3513058E-1,-7.471961E-2,1.7508124E-1,2.3622696E-1,-5.2107763E-1,1.4976141E-2,-6.4691985E-1,-3.1788188E-1,7.1212515E-2,8.084075E-2,5.905954E-1,6.0317693E-3,7.390388E-2,-2.2786777E-1,4.2652774E-1,-1.8100592E-1,-7.036758E-1,1.4657332E-1,-1.6081466E-1,-7.869401E-1,1.0653475E-1,2.3985872E-1,-4.3204665E-1,2.099436E-1,-2.4130118E-1,-1.5720946E-1,1.7596596E-1,-1.172228E-1,8.9031875E-1,-1.879247E-1,1.1907351E-1,3.0483633E-1,-6.0526807E-2,-1.3093117E-1,4.8023663E-2,-3.3758067E-2,-2.6905626E-1,-8.945859E-2,1.7015035E-1,-2.6908436E-1,8.981974E-2,-1.0471327E-1,1.3705404E-1,2.6057893E-1,-8.935138E-2,-2.1685207E-1,-7.0449874E-2,9.076995E-2,-7.94126E-3,-1.4207026E-1,1.2790266E-1,1.6612312E-1,-1.0516717E-1,6.718714E-2,-2.901506E-1,1.6967812E-1,-2.182651E-1,1.3074028E-1,2.962938E-1],"categories":[],"categories_nodes":[],"categories_segments":[],"categories_sizes":[],"default_left":[0,0,0,0,0,0,0,0,0,0,0,0,0,0,0,0,0,0,0,0,0,0,0,0,0,0,0,0,0,0,0,0,0,0,0,0,0,0,0,0,0,0,0,0,0,0,0,0,0,0,0,0,0,0,0,0,0,0,0,0,0,0,0,0,0,0,0,0,0,0,0],"id":20,"left_children":[1,3,5,-1,7,9,11,13,-1,15,17,19,21,-1,23,25,27,29,31,33,35,37,39,-1,-1,41,43,45,47,49,-1,51,53,55,57,59,61,63,65,67,69,-1,-1,-1,-1,-1,-1,-1,-1,-1,-1,-1,-1,-1,-1,-1,-1,-1,-1,-1,-1,-1,-1,-1,-1,-1,-1,-1,-1,-1,-1],"loss_changes":[3.572811E0,5.9248924E-1,3.0106828E0,0E0,4.9210465E-1,1.256974E0,2.593228E0,2.514396E-1,0E0,2.3476715E0,3.346606E0,5.018979E0,4.1843724E0,0E0,2.8957069E-2,1.2504013E0,2.4290335E-1,1.1784972E0,1.8206964E0,3.0796847E0,5.000871E0,3.516817E0,3.937808E0,0E0,0E0,1.356445E0,3.7643254E0,3.6865312E-1,3.0258322E-1,2.6065493E0,0E0,1.9419231E0,7.1178484E-1,3.1608574E0,2.0756884E0,1.7512488E0,5.7174883E0,6.3139806E0,6.282116E0,3.0198731E0,1.3628197E-1,0E0,0E0,0E0,0E0,0E0,0E0,0E0,0E0,0E0,0E0,0E0,0E0,0E0,0E0,0E0,0E0,0E0,0E0,0E0,0E0,0E0,0E0,0E0,0E0,0E0,0E0,0E0,0E0,0E0,0E0],"parents":[2147483647,0,0,1,1,2,2,4,4,5,5,6,6,7,7,9,9,10,10,11,11,12,12,14,14,15,15,16,16,17,17,18,18,19,19,20,20,21,21,22,22,25,25,26,26,27,27,28,28,29,29,31,31,32,32,33,33,34,34,35,35,36,36,37,37,38,38,39,39,40,40],"right_children":[2,4,6,-1,8,10,12,14,-1,16,18,20,22,-1,24,26,28,30,32,34,36,38,40,-1,-1,42,44,46,48,50,-1,52,54,56,58,60,62,64,66,68,70,-1,-1,-1,-1,-1,-1,-1,-1,-1,-1,-1,-1,-1,-1,-1,-1,-1,-1,-1,-1,-1,-1,-1,-1,-1,-1,-1,-1,-1,-1],"split_conditions":[0E0,1E0,1E0,-2.4555455E-1,1E0,1E0,1E0,1E0,-1.8329582E-1,1E0,1E0,1E0,0E0,-7.471961E-2,1E0,1E0,0E0,1E0,1E0,1E0,1E0,1E0,0E0,6.0317693E-3,7.390388E-2,1E0,1E0,1E0,1E0,1E0,-1.6081466E-1,1E0,1E0,0E0,1E0,1E0,0E0,0E0,1E0,1E0,1E0,-1.879247E-1,1.1907351E-1,3.0483633E-1,-6.0526807E-2,-1.3093117E-1,4.8023663E-2,-3.3758067E-2,-2.6905626E-1,-8.945859E-2,1.7015035E-1,-2.6908436E-1,8.981974E-2,-1.0471327E-1,1.3705404E-1,2.6057893E-1,-8.935138E-2,-2.1685207E-1,-7.0449874E-2,9.076995E-2,-7.94126E-3,-1.4207026E-1,1.2790266E-1,1.6612312E-1,-1.0516717E-1,6.718714E-2,-2.901506E-1,1.6967812E-1,-2.182651E-1,1.3074028E-1,2.962938E-1],"split_indices":[13,7,27,0,8,24,25,3,0,1,25,24,15,0,28,28,14,14,26,0,26,0,14,0,0,23,23,26,21,23,0,15,23,1,23,8,1,6,18,23,3,0,0,0,0,0,0,0,0,0,0,0,0,0,0,0,0,0,0,0,0,0,0,0,0,0,0,0,0,0,0],"split_type":[0,0,0,0,0,0,0,0,0,0,0,0,0,0,0,0,0,0,0,0,0,0,0,0,0,0,0,0,0,0,0,0,0,0,0,0,0,0,0,0,0,0,0,0,0,0,0,0,0,0,0,0,0,0,0,0,0,0,0,0,0,0,0,0,0,0,0,0,0,0,0],"sum_hessian":[3.8524118E2,9.519645E0,3.7572153E2,4.463374E0,5.0562706E0,4.6652306E1,3.290692E2,3.6435068E0,1.4127638E0,1.7020391E1,2.9631916E1,1.5891629E2,1.7015294E2,1.573143E0,2.0703638E0,1.2057527E1,4.962865E0,1.4168616E1,1.54633E1,4.5738697E1,1.131776E2,1.5308342E2,1.7069519E1,1.0560248E0,1.014339E0,3.448969E0,8.608558E0,2.4294763E0,2.5333886E0,1.2029661E1,2.1389554E0,1.3002502E1,2.4607968E0,7.5844812E0,3.8154217E1,7.860948E1,3.4568115E1,4.352064E1,1.09562775E2,5.2589726E0,1.1810547E1,2.1041253E0,1.3448437E0,4.1225667E0,4.485991E0,1.2293131E0,1.2001631E0,1.0137362E0,1.5196522E0,5.988247E0,6.041414E0,1.1965191E1,1.0373113E0,1.0712547E0,1.389542E0,3.2125685E0,4.3719125E0,1.4341813E1,2.3812405E1,5.6280136E1,2.2329342E1,2.586176E1,8.706355E0,8.906574E0,3.4614067E1,1.0592011E2,3.6426601E0,2.5166798E0,2.7422926E0,3.0490732E0,8.761474E0],"tree_param":{"num_deleted":"0","num_feature":"30","num_nodes":"71","size_leaf_vector":"1"}},{"base_weights":[-1.2155162E-3,-1.1944363E-2,2.4122982E-1,-5.693049E-1,1.8261067E-3,-3.4888297E-2,-2.0985359E-1,-6.348377E-2,1.08060285E-1,-4.9440295E-1,1.8178863E-2,1.6671212E-1,-2.625148E-1,2.0113213E-1,-6.9003326E-1,-4.7214642E-1,1.1780032E-1,-5.1444274E-1,2.568758E-1,2.731102E-1,-5.4903245E-1,-1.660387E-1,2.0610754E-1,2.714672E-2,-2.6140505E-1,1.2564145E-1,-2.0516561E-1,4.658082E-2,-1.8162782E-1,4.543344E-2,-2.4583007E-1,1.6065606E-1,1.8545037E-2,-5.536623E-1,-8.976641E-2],"categories":[],"categories_nodes":[],"categories_segments":[],"categories_sizes":[],"default_left":[0,0,0,0,0,0,0,0,0,0,0,0,0,0,0,0,0,0,0,0,0,0,0,0,0,0,0,0,0,0,0,0,0,0,0],"id":21,"left_children":[1,3,-1,5,7,-1,-1,9,11,13,15,17,19,21,23,25,27,29,31,-1,33,-1,-1,-1,-1,-1,-1,-1,-1,-1,-1,-1,-1,-1,-1],"loss_changes":[3.2633874E0,2.8609805E0,0E0,4.4878054E-1,2.5367668E0,0E0,0E0,7.9775324E0,3.0691352E0,5.05241E0,9.401592E0,7.5502405E0,7.022115E0,3.5706995E0,4.0994873E0,6.419201E0,4.424987E0,3.0592136E0,5.800678E0,0E0,4.7017913E0,0E0,0E0,0E0,0E0,0E0,0E0,0E0,0E0,0E0,0E0,0E0,0E0,0E0,0E0],"parents":[2147483647,0,0,1,1,3,3,4,4,7,7,8,8,9,9,10,10,11,11,12,12,13,13,14,14,15,15,16,16,17,17,18,18,20,20],"right_children":[2,4,-1,6,8,-1,-1,10,12,14,16,18,20,22,24,26,28,30,32,-1,34,-1,-1,-1,-1,-1,-1,-1,-1,-1,-1,-1,-1,-1,-1],"split_conditions":[1E0,0E0,2.4122982E-1,1E0,1E0,-3.4888297E-2,-2.0985359E-1,1E0,1E0,1E0,1E0,1E0,1E0,1E0,0E0,1E0,1E0,0E0,1E0,2.731102E-1,1E0,-1.660387E-1,2.0610754E-1,2.714672E-2,-2.6140505E-1,1.2564145E-1,-2.0516561E-1,4.658082E-2,-1.8162782E-1,4.543344E-2,-2.4583007E-1,1.6065606E-1,1.8545037E-2,-5.536623E-1,-8.976641E-2],"split_indices":[5,13,0,22,28,0,0,0,1,16,24,16,9,7,6,16,18,6,8,0,21,0,0,0,0,0,0,0,0,0,0,0,0,0,0],"split_type":[0,0,0,0,0,0,0,0,0,0,0,0,0,0,0,0,0,0,0,0,0,0,0,0,0,0,0,0,0,0,0,0,0,0,0],"sum_hessian":[3.755909E2,3.716251E2,3.9658248E0,7.987515E0,3.6363757E2,2.2059207E0,5.7815943E0,2.2544348E2,1.3819409E2,3.51116E1,1.9033188E2,1.1978547E2,1.8408617E1,7.7015896E0,2.741001E1,3.150897E1,1.5882292E2,1.3452317E1,1.0633315E2,3.1866145E0,1.5222003E1,2.962206E0,4.7393837E0,5.26151E0,2.2148499E1,5.86258E0,2.5646389E1,1.517465E2,7.0764093E0,4.3840504E0,9.068267E0,4.3066566E1,6.3266582E1,1.4271923E0,1.379481E1],"tree_param":{"num_deleted":"0","num_feature":"30","num_nodes":"35","size_leaf_vector":"1"}},{"base_weights":[-2.239377E-3,-1.2472784E-1,7.935175E-2,-7.432026E-2,-5.805021E-1,1.6119495E-3,3.3784008E-1,-2.7106515E-1,2.613913E-2,-3.1910124E-1,7.989122E-2,5.6688553E-1,-4.300128E-2,8.476084E-1,1.8063264E-1,-6.905086E-1,-4.389066E-2,-2.7361548E-1,7.124742E-2,-2.829245E-1,2.4175437E-1,-5.7189476E-2,7.0714784E-1,-8.556026E-2,4.6913156E-1,3.038764E-1,2.75259E-1,-3.1964388E-2,4.7207895E-1,-3.039357E-1,-3.9898625E-1,6.6334665E-1,-1.2498501E-1,2.0555943E-1,-2.8734112E-1,3.7858948E-1,2.4766797E-1,-3.2365382E-1,1.5220475E-2,-1.3616791E-2,7.216734E-1,-3.612611E-2,1.9843729E-1,2.4867277E-1,-1.8370898E-1,6.7719185E-1,-1.9897178E-1,3.8843907E-2,-1.6673148E-1,3.035543E-1,1.5078241E-2,8.610738E-2,-7.504332E-2,1.6548483E-1,-2.0633059E-2,-1.652894E-1,5.2592915E-2,2.174677E-2,1.9968194E-1,-3.7389535E-1,-6.580715E-2,1.2430637E-1,-5.469114E-2,1.9055249E-1,-1.3259383E-1,7.185258E-2,2.5517625E-1,-1.6594987E-1,3.2579776E-2,-8.8727295E-2,2.6725817E-1,-2.0619297E-1,1.8044662E-1],"categories":[],"categories_nodes":[],"categories_segments":[],"categories_sizes":[],"default_left":[0,0,0,0,0,0,0,0,0,0,0,0,0,0,0,0,0,0,0,0,0,0,0,0,0,0,0,0,0,0,0,0,0,0,0,0,0,0,0,0,0,0,0,0,0,0,0,0,0,0,0,0,0,0,0,0,0,0,0,0,0,0,0,0,0,0,0,0,0,0,0,0,0],"id":22,"left_children":[1,3,5,7,9,11,13,15,17,-1,19,21,23,25,27,29,31,-1,33,-1,-1,-1,35,37,39,-1,41,43,45,-1,47,49,51,53,55,57,-1,59,61,63,65,-1,-1,-1,67,69,71,-1,-1,-1,-1,-1,-1,-1,-1,-1,-1,-1,-1,-1,-1,-1,-1,-1,-1,-1,-1,-1,-1,-1,-1,-1,-1],"loss_changes":[3.7008662E0,3.3580663E0,4.4660654E0,2.6644151E0,4.7422495E0,4.359176E0,3.9651036E0,4.3083925E0,3.8701594E0,0E0,6.030507E0,1.4782596E0,3.5328004E0,8.4158325E-1,2.5273852E0,1.0938826E0,1.838133E0,0E0,4.2355876E0,0E0,0E0,0E0,1.1078215E-1,3.575304E0,1.527544E0,0E0,6.9500136E-1,3.337283E0,2.4973955E0,0E0,9.019605E-1,6.5566015E-1,1.5309956E0,6.082511E0,3.0294707E0,3.672778E-1,0E0,3.9892883E0,8.392925E0,1.7418114E0,3.054638E-1,0E0,0E0,0E0,2.3869727E0,3.0437717E0,2.286331E0,0E0,0E0,0E0,0E0,0E0,0E0,0E0,0E0,0E0,0E0,0E0,0E0,0E0,0E0,0E0,0E0,0E0,0E0,0E0,0E0,0E0,0E0,0E0,0E0,0E0,0E0],"parents":[2147483647,0,0,1,1,2,2,3,3,4,4,5,5,6,6,7,7,8,8,10,10,11,11,12,12,13,13,14,14,15,15,16,16,18,18,22,22,23,23,24,24,26,26,27,27,28,28,30,30,31,31,32,32,33,33,34,34,35,35,37,37,38,38,39,39,40,40,44,44,45,45,46,46],"right_children":[2,4,6,8,10,12,14,16,18,-1,20,22,24,26,28,30,32,-1,34,-1,-1,-1,36,38,40,-1,42,44,46,-1,48,50,52,54,56,58,-1,60,62,64,66,-1,-1,-1,68,70,72,-1,-1,-1,-1,-1,-1,-1,-1,-1,-1,-1,-1,-1,-1,-1,-1,-1,-1,-1,-1,-1,-1,-1,-1,-1,-1],"split_conditions":[1E0,0E0,1E0,0E0,1E0,0E0,1E0,1E0,0E0,-3.1910124E-1,1E0,1E0,1E0,1E0,1E0,1E0,1E0,-2.7361548E-1,1E0,-2.829245E-1,2.4175437E-1,-5.7189476E-2,1E0,1E0,1E0,3.038764E-1,0E0,0E0,1E0,-3.039357E-1,1E0,0E0,1E0,1E0,1E0,1E0,2.4766797E-1,1E0,0E0,1E0,1E0,-3.612611E-2,1.9843729E-1,2.4867277E-1,1E0,1E0,1E0,3.8843907E-2,-1.6673148E-1,3.035543E-1,1.5078241E-2,8.610738E-2,-7.504332E-2,1.6548483E-1,-2.0633059E-2,-1.652894E-1,5.2592915E-2,2.174677E-2,1.9968194E-1,-3.7389535E-1,-6.580715E-2,1.2430637E-1,-5.469114E-2,1.9055249E-1,-1.3259383E-1,7.185258E-2,2.5517625E-1,-1.6594987E-1,3.2579776E-2,-8.8727295E-2,2.6725817E-1,-2.0619297E-1,1.8044662E-1],"split_indices":[7,7,26,6,6,25,24,24,28,0,25,4,13,1,25,8,21,0,26,0,0,0,0,12,0,0,15,6,8,0,27,14,0,23,6,14,0,22,6,23,27,0,0,0,6,21,23,0,0,0,0,0,0,0,0,0,0,0,0,0,0,0,0,0,0,0,0,0,0,0,0,0,0],"split_type":[0,0,0,0,0,0,0,0,0,0,0,0,0,0,0,0,0,0,0,0,0,0,0,0,0,0,0,0,0,0,0,0,0,0,0,0,0,0,0,0,0,0,0,0,0,0,0,0,0,0,0,0,0,0,0,0,0,0,0,0,0,0,0,0,0,0,0,0,0,0,0,0,0],"sum_hessian":[3.683195E2,1.4704295E2,2.2127654E2,1.3344708E2,1.3595876E1,1.7088844E2,5.0388092E1,4.4533028E1,8.8914055E1,7.498805E0,6.097071E0,1.164415E1,1.592443E2,1.0841447E1,3.9546646E1,1.4929115E1,2.9603912E1,3.1972144E0,8.571684E1,2.4066632E0,3.690408E0,1.7630901E0,9.88106E0,1.4779523E2,1.1449064E1,7.814584E0,3.026863E0,2.3381334E1,1.616531E1,5.9117093E0,9.017406E0,2.3067167E0,2.7297195E1,6.2670055E1,2.3046783E1,3.7296388E0,6.1514206E0,4.3296406E1,1.04498825E2,4.257221E0,7.1918435E0,1.8350034E0,1.1918598E0,2.8350534E0,2.0546282E1,1.2373946E1,3.7913635E0,2.103028E0,6.914378E0,1.0560185E0,1.2506982E0,6.058867E0,2.1238329E1,2.7265612E1,3.5404446E1,1.4559649E1,8.487135E0,2.41095E0,1.318689E0,3.2850816E0,4.0011326E1,3.4231018E1,7.026781E1,1.5010126E0,2.756209E0,2.1201067E0,5.071737E0,8.681307E0,1.1864975E1,2.158938E0,1.0215009E1,2.442575E0,1.3487885E0],"tree_param":{"num_deleted":"0","num_feature":"30","num_nodes":"73","size_leaf_vector":"1"}},{"base_weights":[2.9136706E-4,-6.961025E-2,1.20304175E-1,1.8904002E-1,-1.0356079E-1,-4.856359E-2,2.1252444E-1,4.6066803E-1,-2.3917255E-1,2.6931462E-1,-1.39164E-1,-5.636253E-1,1.960554E-2,7.5110614E-2,5.019375E-1,-7.830442E-2,7.25683E-1,7.064082E-2,-2.750804E-1,4.4303113E-1,-3.257678E-1,-2.9296944E-1,-1.2458116E-1,1.8052395E-2,-2.82775E-1,2.1551047E-1,-1.7367288E-1,6.999566E-1,-1.200025E-2,-3.823792E-1,6.233628E-1,-1.6364796E-1,2.8599614E-1,1.0844818E-1,9.9356496E-1,-4.128328E-1,5.157637E-1,6.466102E-2,6.9409466E-1,9.0964146E-2,-1.9003083E-1,-2.501315E-1,-3.9116517E-2,-5.6294656E-1,4.5716265E-1,-3.6793524E-1,1.9588761E-1,6.184113E-2,2.3714507E-1,2.9473576E-1,-2.3300213E-1,1.07239805E-1,-3.5151696E-1,2.7082533E-1,8.0412185E-1,-1.06370926E-1,2.6390135E-1,-1.2709199E-1,2.4568127E-1,3.2535276E-1,6.208418E-2,-3.1914952E-1,1.21853665E-1,3.293438E-1,-9.5265456E-2,1.3341883E-1,-2.0151274E-1,2.616322E-1,-1.2598986E-2,-1.8651961E-1,-2.5537265E-2,-2.5033765E-2,1.442504E-1,-2.7982074E-1,-2.7346509E-2,2.0634715E-1,-2.544191E-1,-3.00375E-1,5.2155938E-2,-4.715179E-2,1.9633342E-1,1.5831997E-1,-1.0945868E-1,-2.3080133E-1,1.434198E-1,9.684736E-2,2.696457E-1],"categories":[],"categories_nodes":[],"categories_segments":[],"categories_sizes":[],"default_left":[0,0,0,0,0,0,0,0,0,0,0,0,0,0,0,0,0,0,0,0,0,0,0,0,0,0,0,0,0,0,0,0,0,0,0,0,0,0,0,0,0,0,0,0,0,0,0,0,0,0,0,0,0,0,0,0,0,0,0,0,0,0,0,0,0,0,0,0,0,0,0,0,0,0,0,0,0,0,0,0,0,0,0,0,0,0,0],"id":23,"left_children":[1,3,5,7,9,11,13,15,17,19,21,23,25,27,29,31,33,35,-1,37,39,-1,41,-1,-1,43,45,47,49,51,53,-1,55,57,59,61,63,65,67,-1,-1,69,71,73,75,77,-1,-1,-1,79,81,-1,-1,83,85,-1,-1,-1,-1,-1,-1,-1,-1,-1,-1,-1,-1,-1,-1,-1,-1,-1,-1,-1,-1,-1,-1,-1,-1,-1,-1,-1,-1,-1,-1,-1,-1],"loss_changes":[3.019487E0,2.01692E0,2.073409E0,3.2210624E0,2.7152689E0,1.682606E0,3.3773315E0,2.4431133E0,2.3827212E0,1.9969909E0,2.134894E0,1.3800658E0,1.6659404E0,3.2416692E0,3.1879973E0,1.2468884E0,1.7601681E0,2.0431054E0,0E0,1.3131545E0,1.087244E0,0E0,1.9513583E0,0E0,0E0,4.359367E0,3.8057637E0,1.62714E-1,3.669402E0,2.7175965E0,1.3455906E0,0E0,1.9309242E0,2.063849E0,3.3037376E-1,2.9017682E0,2.7118578E0,2.2032375E0,1.1492205E0,0E0,0E0,4.4746776E0,2.5739202E0,8.943596E-1,5.7592525E0,6.562357E0,0E0,0E0,0E0,3.7904692E0,3.3454437E0,0E0,0E0,2.4853466E0,4.2586136E-1,0E0,0E0,0E0,0E0,0E0,0E0,0E0,0E0,0E0,0E0,0E0,0E0,0E0,0E0,0E0,0E0,0E0,0E0,0E0,0E0,0E0,0E0,0E0,0E0,0E0,0E0,0E0,0E0,0E0,0E0,0E0,0E0],"parents":[2147483647,0,0,1,1,2,2,3,3,4,4,5,5,6,6,7,7,8,8,9,9,10,10,11,11,12,12,13,13,14,14,15,15,16,16,17,17,19,19,20,20,22,22,25,25,26,26,27,27,28,28,29,29,30,30,32,32,33,33,34,34,35,35,36,36,37,37,38,38,41,41,42,42,43,43,44,44,45,45,49,49,50,50,53,53,54,54],"right_children":[2,4,6,8,10,12,14,16,18,20,22,24,26,28,30,32,34,36,-1,38,40,-1,42,-1,-1,44,46,48,50,52,54,-1,56,58,60,62,64,66,68,-1,-1,70,72,74,76,78,-1,-1,-1,80,82,-1,-1,84,86,-1,-1,-1,-1,-1,-1,-1,-1,-1,-1,-1,-1,-1,-1,-1,-1,-1,-1,-1,-1,-1,-1,-1,-1,-1,-1,-1,-1,-1,-1,-1,-1],"split_conditions":[1E0,1E0,1E0,1E0,1E0,1E0,1E0,1E0,1E0,1E0,1E0,1E0,1E0,0E0,1E0,1E0,1E0,1E0,-2.750804E-1,1E0,0E0,-2.9296944E-1,1E0,1.8052395E-2,-2.82775E-1,1E0,0E0,1E0,1E0,1E0,1E0,-1.6364796E-1,1E0,1E0,1E0,1E0,0E0,0E0,1E0,9.0964146E-2,-1.9003083E-1,1E0,1E0,0E0,0E0,1E0,1.9588761E-1,6.184113E-2,2.3714507E-1,0E0,1E0,1.07239805E-1,-3.5151696E-1,1E0,1E0,-1.06370926E-1,2.6390135E-1,-1.2709199E-1,2.4568127E-1,3.2535276E-1,6.208418E-2,-3.1914952E-1,1.21853665E-1,3.293438E-1,-9.5265456E-2,1.3341883E-1,-2.0151274E-1,2.616322E-1,-1.2598986E-2,-1.8651961E-1,-2.5537265E-2,-2.5033765E-2,1.442504E-1,-2.7982074E-1,-2.7346509E-2,2.0634715E-1,-2.544191E-1,-3.00375E-1,5.2155938E-2,-4.715179E-2,1.9633342E-1,1.5831997E-1,-1.0945868E-1,-2.3080133E-1,1.434198E-1,9.684736E-2,2.696457E-1],"split_indices":[6,21,7,16,11,11,25,3,1,26,4,2,25,25,22,7,25,23,0,23,6,0,25,0,0,24,7,23,23,8,12,0,22,10,13,28,6,1,14,0,0,7,1,14,7,28,0,0,0,14,12,0,0,3,23,0,0,0,0,0,0,0,0,0,0,0,0,0,0,0,0,0,0,0,0,0,0,0,0,0,0,0,0,0,0,0,0],"split_type":[0,0,0,0,0,0,0,0,0,0,0,0,0,0,0,0,0,0,0,0,0,0,0,0,0,0,0,0,0,0,0,0,0,0,0,0,0,0,0,0,0,0,0,0,0,0,0,0,0,0,0,0,0,0,0,0,0,0,0,0,0,0,0,0,0,0,0,0,0,0,0,0,0,0,0,0,0,0,0,0,0,0,0,0,0,0,0],"sum_hessian":[3.5793198E2,2.2645369E2,1.3147827E2,2.574544E1,2.0070825E2,4.6607338E1,8.487093E1,1.5706528E1,1.0038913E1,1.6921686E1,1.8378658E2,4.598052E0,4.200929E1,5.8401382E1,2.6469551E1,5.4095063E0,1.0297021E1,7.504354E0,2.5345585E0,1.3295867E1,3.6258178E0,2.016646E0,1.8176993E2,2.0555835E0,2.5424688E0,2.0805763E1,2.1203524E1,6.2848597E0,5.211652E1,2.936259E0,2.3533293E1,2.1521547E0,3.2573516E0,3.5415852E0,6.7554355E0,3.6319864E0,3.8723676E0,5.8049517E0,7.490916E0,1.1957549E0,2.430063E0,7.283954E1,1.0893038E2,4.613686E0,1.6192078E1,1.7618088E1,3.585436E0,1.481335E0,4.803525E0,2.1685226E1,3.0431295E1,1.7980747E0,1.1381843E0,8.823308E0,1.4709985E1,1.7605262E0,1.4968255E0,2.2558818E0,1.2857033E0,5.7158976E0,1.039538E0,1.8570064E0,1.7749798E0,2.093034E0,1.7793336E0,4.09E0,1.7149515E0,5.8833365E0,1.607579E0,2.154708E1,5.129246E1,1.0114647E2,7.7839108E0,2.0387273E0,2.5749588E0,1.4162318E1,2.0297592E0,7.731928E0,9.886159E0,9.860443E0,1.1824783E1,4.052005E0,2.637929E1,1.0152696E0,7.808038E0,3.1432853E0,1.1566699E1],"tree_param":{"num_deleted":"0","num_feature":"30","num_nodes":"87","size_leaf_vector":"1"}},{"base_weights":[1.4126624E-3,-2.0963229E-1,3.1622957E-2,1.368137E-1,-2.6636958E-1,2.5774643E-1,5.665141E-4,1.5618874E-1,-2.0676169E-1,-5.713691E-1,-1.6265683E-1,-1.1078724E-1,3.726222E-1,-5.54887E-2,1.02220386E-1,8.2947075E-2,-1.8648282E-1,5.5940796E-2,-7.250338E-1,-2.1682523E-1,3.4315166E-1,-6.0066295E-1,1.8106481E-1,-3.3389434E-1,4.438389E-1,-1.777628E-1,2.259019E-2,5.76498E-3,2.6319277E-1,-2.4278274E-2,-8.283926E-1,-1.5124707E-1,-5.663634E-1,1.4476013E-1,1.3815256E-2,-9.640475E-1,1.642463E-1,-1.8354051E-1,3.4826927E-2,7.045737E-1,1.499496E-1,3.5841137E-2,-4.0805647E-1,1.4149767E-1,-7.7907786E-2,-2.2722611E-1,1.8787302E-1,3.5407832E-1,-2.1819124E-1,-2.854931E-1,-3.164147E-2,-1.773519E-2,-1.7415226E-1,9.383444E-3,-2.5427613E-1,-1.5074465E-1,-3.9815226E-1,2.6643282E-1,-1.8343695E-2,1.594478E-1,-2.0039806E-1,-9.469067E-2,6.895312E-2,-2.4759403E-1,-6.3092776E-2,-1.0307861E-1,9.851323E-2,-9.2687875E-2,2.3412095E-2,-9.696126E-2,2.1507792E-1,1.2968306E-1,-5.2567E-2,2.3560973E-2,2.058165E-1,-1.8324605E-1,1.7282143E-1],"categories":[],"categories_nodes":[],"categories_segments":[],"categories_sizes":[],"default_left":[0,0,0,0,0,0,0,0,0,0,0,0,0,0,0,0,0,0,0,0,0,0,0,0,0,0,0,0,0,0,0,0,0,0,0,0,0,0,0,0,0,0,0,0,0,0,0,0,0,0,0,0,0,0,0,0,0,0,0,0,0,0,0,0,0,0,0,0,0,0,0,0,0,0,0,0,0],"id":24,"left_children":[1,3,5,7,9,11,13,-1,15,17,19,21,23,25,27,-1,-1,-1,29,31,33,35,-1,37,39,41,43,45,47,-1,49,51,53,-1,-1,55,-1,-1,-1,57,59,61,63,65,67,69,71,73,75,-1,-1,-1,-1,-1,-1,-1,-1,-1,-1,-1,-1,-1,-1,-1,-1,-1,-1,-1,-1,-1,-1,-1,-1,-1,-1,-1,-1],"loss_changes":[2.2157497E0,8.918674E-1,2.1345117E0,1.0023525E0,1.1006806E0,1.5951891E0,1.534311E0,0E0,1.033076E0,1.2039137E0,8.8422734E-1,3.684528E0,1.5676715E0,1.661026E0,1.4844251E0,0E0,0E0,0E0,4.5454645E-1,5.403528E-1,1.12211436E-1,3.0864162E0,0E0,4.6544212E-1,1.8910522E0,3.3474267E0,1.287418E0,2.625219E0,1.6451273E0,0E0,4.9152803E-1,9.2908216E-1,6.903982E-1,0E0,0E0,1.7457533E-1,0E0,0E0,0E0,1.9567738E0,4.5744295E0,2.531972E0,2.523131E0,4.5802426E0,2.133134E0,2.6924653E0,3.1560788E0,2.7384589E0,2.3196867E0,0E0,0E0,0E0,0E0,0E0,0E0,0E0,0E0,0E0,0E0,0E0,0E0,0E0,0E0,0E0,0E0,0E0,0E0,0E0,0E0,0E0,0E0,0E0,0E0,0E0,0E0,0E0,0E0],"parents":[2147483647,0,0,1,1,2,2,3,3,4,4,5,5,6,6,8,8,9,9,10,10,11,11,12,12,13,13,14,14,18,18,19,19,20,20,21,21,23,23,24,24,25,25,26,26,27,27,28,28,30,30,31,31,32,32,35,35,39,39,40,40,41,41,42,42,43,43,44,44,45,45,46,46,47,47,48,48],"right_children":[2,4,6,8,10,12,14,-1,16,18,20,22,24,26,28,-1,-1,-1,30,32,34,36,-1,38,40,42,44,46,48,-1,50,52,54,-1,-1,56,-1,-1,-1,58,60,62,64,66,68,70,72,74,76,-1,-1,-1,-1,-1,-1,-1,-1,-1,-1,-1,-1,-1,-1,-1,-1,-1,-1,-1,-1,-1,-1,-1,-1,-1,-1,-1,-1],"split_conditions":[1E0,1E0,1E0,1E0,1E0,1E0,1E0,1.5618874E-1,0E0,0E0,1E0,1E0,1E0,1E0,1E0,8.2947075E-2,-1.8648282E-1,5.5940796E-2,1E0,1E0,1E0,1E0,1.8106481E-1,1E0,1E0,0E0,1E0,0E0,0E0,-2.4278274E-2,0E0,1E0,0E0,1.4476013E-1,1.3815256E-2,1E0,1.642463E-1,-1.8354051E-1,3.4826927E-2,1E0,1E0,1E0,1E0,1E0,0E0,1E0,1E0,1E0,1E0,-2.854931E-1,-3.164147E-2,-1.773519E-2,-1.7415226E-1,9.383444E-3,-2.5427613E-1,-1.5074465E-1,-3.9815226E-1,2.6643282E-1,-1.8343695E-2,1.594478E-1,-2.0039806E-1,-9.469067E-2,6.895312E-2,-2.4759403E-1,-6.3092776E-2,-1.0307861E-1,9.851323E-2,-9.2687875E-2,2.3412095E-2,-9.696126E-2,2.1507792E-1,1.2968306E-1,-5.2567E-2,2.3560973E-2,2.058165E-1,-1.8324605E-1,1.7282143E-1],"split_indices":[27,17,21,1,0,12,6,0,14,25,26,22,11,25,28,0,0,0,9,14,12,13,0,7,16,6,12,14,1,0,15,13,6,0,0,14,0,0,0,13,1,24,0,8,14,1,14,7,26,0,0,0,0,0,0,0,0,0,0,0,0,0,0,0,0,0,0,0,0,0,0,0,0,0,0,0,0],"split_type":[0,0,0,0,0,0,0,0,0,0,0,0,0,0,0,0,0,0,0,0,0,0,0,0,0,0,0,0,0,0,0,0,0,0,0,0,0,0,0,0,0,0,0,0,0,0,0,0,0,0,0,0,0,0,0,0,0,0,0,0,0,0,0,0,0,0,0,0,0,0,0,0,0,0,0,0,0],"sum_hessian":[3.45489E2,4.251888E1,3.0297012E2,5.7847853E0,3.6734093E1,3.5704517E1,2.6726562E2,2.4889731E0,3.2958121E0,8.177237E0,2.8556856E1,8.493156E0,2.7211359E1,1.7256297E2,9.470264E1,1.6764482E0,1.6193638E0,1.3425602E0,6.8346763E0,2.631052E1,2.2463357E0,5.132522E0,3.3606346E0,2.1539857E0,2.5057375E1,6.6751396E1,1.05811584E2,5.986629E1,3.4836346E1,1.1916416E0,5.6430345E0,2.336048E1,2.950041E0,1.1041788E0,1.142157E0,4.020424E0,1.1120986E0,1.1092885E0,1.0446972E0,1.2537159E1,1.2520216E1,3.506862E1,3.1682775E1,4.8279797E1,5.7531788E1,2.6155235E1,3.3711056E1,2.9526234E1,5.31011E0,4.5507836E0,1.0922511E0,2.0169361E1,3.191118E0,1.2283646E0,1.7216765E0,2.8198793E0,1.2005445E0,9.984202E0,2.552956E0,8.776486E0,3.7437289E0,1.2249355E1,2.2819263E1,9.166792E0,2.2515984E1,1.319369E1,3.5086105E1,2.2788023E1,3.4743767E1,2.4338749E1,1.8164847E0,2.0034859E1,1.3676197E1,1.6810246E1,1.2715988E1,3.70806E0,1.6020503E0],"tree_param":{"num_deleted":"0","num_feature":"30","num_nodes":"77","size_leaf_vector":"1"}},{"base_weights":[1.7938312E-4,-7.960816E-3,2.208559E-1,-5.598014E-1,4.1143238E-3,-2.1372733E-1,-2.3084983E-1,2.0853904E-1,-1.9558243E-2,-1.08041465E-1,-5.196511E-3,-2.0073527E-1,3.684305E-1,-7.52614E-2,7.235106E-2,-4.1979685E-1,1.9014423E-1,-1.1653506E-2,5.282536E-1,-4.9406728E-1,-5.1307827E-3,1.3666113E-1,-3.2028747E-1,-2.7248526E-1,5.2564666E-2,8.880356E-2,-2.466246E-1,1.8378457E-1,-9.7716875E-2,2.0368531E-1,-1.7846164E-1,-1.3503166E-1,2.1054316E-2,1.1706912E-1,-5.394002E-3,-1.4998326E-1,1.2414259E-1],"categories":[],"categories_nodes":[],"categories_segments":[],"categories_sizes":[],"default_left":[0,0,0,0,0,0,0,0,0,0,0,0,0,0,0,0,0,0,0,0,0,0,0,0,0,0,0,0,0,0,0,0,0,0,0,0,0],"id":25,"left_children":[1,3,-1,5,7,-1,9,11,13,-1,-1,15,17,19,21,23,-1,25,27,29,31,33,35,-1,-1,-1,-1,-1,-1,-1,-1,-1,-1,-1,-1,-1,-1],"loss_changes":[2.0435712E0,2.2504766E0,0E0,1.986084E-1,1.606608E0,0E0,9.787418E-2,2.3285832E0,1.5295529E0,0E0,0E0,2.1538687E0,1.532556E0,5.4560513E0,2.8932908E0,2.7113142E0,0E0,2.34196E0,1.475483E0,3.5547557E0,5.400258E0,3.8368065E0,2.3409567E0,0E0,0E0,0E0,0E0,0E0,0E0,0E0,0E0,0E0,0E0,0E0,0E0,0E0,0E0],"parents":[2147483647,0,0,1,1,3,3,4,4,6,6,7,7,8,8,11,11,12,12,13,13,14,14,15,15,17,17,18,18,19,19,20,20,21,21,22,22],"right_children":[2,4,-1,6,8,-1,10,12,14,-1,-1,16,18,20,22,24,-1,26,28,30,32,34,36,-1,-1,-1,-1,-1,-1,-1,-1,-1,-1,-1,-1,-1,-1],"split_conditions":[1E0,0E0,2.208559E-1,1E0,1E0,-2.1372733E-1,1E0,1E0,1E0,-1.08041465E-1,-5.196511E-3,1E0,1E0,1E0,1E0,1E0,1.9014423E-1,1E0,1E0,1E0,1E0,1E0,1E0,-2.7248526E-1,5.2564666E-2,8.880356E-2,-2.466246E-1,1.8378457E-1,-9.7716875E-2,2.0368531E-1,-1.7846164E-1,-1.3503166E-1,2.1054316E-2,1.1706912E-1,-5.394002E-3,-1.4998326E-1,1.2414259E-1],"split_indices":[5,13,0,25,9,0,0,12,28,0,0,13,7,0,1,22,0,16,13,24,24,8,8,0,0,0,0,0,0,0,0,0,0,0,0,0,0],"split_type":[0,0,0,0,0,0,0,0,0,0,0,0,0,0,0,0,0,0,0,0,0,0,0,0,0,0,0,0,0,0,0,0,0,0,0,0,0],"sum_hessian":[3.3911484E2,3.3638364E2,2.731202E0,6.2316995E0,3.3015192E2,3.4604285E0,2.7712708E0,3.345361E1,2.9669833E2,1.298462E0,1.4728087E0,9.32611E0,2.4127499E1,1.8484879E2,1.1184953E2,7.7807198E0,1.5453902E0,7.4166493E0,1.671085E1,2.564673E1,1.5920206E2,9.6668236E1,1.5181301E1,3.983714E0,3.7970057E0,5.835897E0,1.5807524E0,1.5465677E1,1.2451725E0,1.5757037E0,2.4071026E1,2.2324244E1,1.368778E2,3.6043415E1,6.062482E1,1.2452696E1,2.7286053E0],"tree_param":{"num_deleted":"0","num_feature":"30","num_nodes":"37","size_leaf_vector":"1"}},{"base_weights":[9.233722E-7,-8.6175606E-2,5.7426732E-2,-4.6331715E-2,-5.062643E-1,5.689529E-3,5.131525E-1,-4.3245104E-1,-1.2517999E-2,-2.902114E-1,3.408115E-2,-5.791293E-2,2.2831549E-1,8.635571E-1,2.2903943E-1,-2.6156026E-1,2.8839928E-1,1.9444369E-2,-4.3471256E-1,-2.3393255E-1,1.5493955E-1,4.2400777E-1,-9.075898E-2,7.12558E-1,1.06992945E-1,9.6923254E-2,2.8608128E-1,-8.279823E-2,3.025792E-1,6.745779E-1,-1.0443454E-1,-1.7127776E-1,8.284084E-2,7.377689E-2,-6.700371E-1,2.3523544E-1,1.0983663E-1,-6.062295E-3,-3.2548523E-1,2.7759817E-1,8.697579E-3,-5.2653357E-2,5.1392037E-1,3.013825E-1,-4.9432102E-1,6.483405E-2,2.4762739E-1,-1.529482E-1,2.9435024E-2,9.583379E-3,1.4928785E-1,4.993065E-2,-2.2870168E-2,-8.188681E-2,-2.6824316E-1,-8.263926E-2,1.6952883E-1,-1.7296803E-1,1.0597345E-2,1.147256E-1,-1.2009961E-1,-1.8096639E-1,5.275752E-2,-8.818202E-2,2.718948E-1,2.3989287E-1,-2.236486E-2,7.3954426E-2,-2.202855E-1],"categories":[],"categories_nodes":[],"categories_segments":[],"categories_sizes":[],"default_left":[0,0,0,0,0,0,0,0,0,0,0,0,0,0,0,0,0,0,0,0,0,0,0,0,0,0,0,0,0,0,0,0,0,0,0,0,0,0,0,0,0,0,0,0,0,0,0,0,0,0,0,0,0,0,0,0,0,0,0,0,0,0,0,0,0,0,0,0,0],"id":26,"left_children":[1,3,5,7,9,11,13,15,17,-1,19,21,23,25,27,-1,29,31,33,-1,-1,35,37,39,41,-1,-1,43,-1,45,-1,47,49,51,53,-1,55,57,59,-1,-1,61,63,65,67,-1,-1,-1,-1,-1,-1,-1,-1,-1,-1,-1,-1,-1,-1,-1,-1,-1,-1,-1,-1,-1,-1,-1,-1],"loss_changes":[1.6598244E0,2.2215343E0,4.7427773E0,1.6084164E0,2.9028952E0,2.586966E0,1.8440237E0,3.394667E0,1.5560348E0,0E0,2.864095E0,2.2889915E0,2.3085573E0,1.2128639E-1,3.1676817E0,0E0,1.3433197E0,1.3148276E0,1.0203497E0,0E0,0E0,9.6017504E-1,2.6605568E0,1.130291E0,2.2122507E0,0E0,0E0,1.7277915E0,0E0,3.926158E-2,0E0,2.527296E0,1.7027042E0,6.0890693E-2,2.583754E-1,0E0,1.2260275E0,2.3681128E0,2.033632E0,0E0,0E0,3.2596402E0,3.3003914E0,1.1433852E0,1.1054888E0,0E0,0E0,0E0,0E0,0E0,0E0,0E0,0E0,0E0,0E0,0E0,0E0,0E0,0E0,0E0,0E0,0E0,0E0,0E0,0E0,0E0,0E0,0E0,0E0],"parents":[2147483647,0,0,1,1,2,2,3,3,4,4,5,5,6,6,7,7,8,8,10,10,11,11,12,12,13,13,14,14,16,16,17,17,18,18,21,21,22,22,23,23,24,24,27,27,29,29,31,31,32,32,33,33,34,34,36,36,37,37,38,38,41,41,42,42,43,43,44,44],"right_children":[2,4,6,8,10,12,14,16,18,-1,20,22,24,26,28,-1,30,32,34,-1,-1,36,38,40,42,-1,-1,44,-1,46,-1,48,50,52,54,-1,56,58,60,-1,-1,62,64,66,68,-1,-1,-1,-1,-1,-1,-1,-1,-1,-1,-1,-1,-1,-1,-1,-1,-1,-1,-1,-1,-1,-1,-1,-1],"split_conditions":[1E0,0E0,0E0,1E0,1E0,1E0,1E0,1E0,1E0,-2.902114E-1,1E0,0E0,1E0,0E0,1E0,-2.6156026E-1,1E0,1E0,1E0,-2.3393255E-1,1.5493955E-1,1E0,1E0,1E0,1E0,9.6923254E-2,2.8608128E-1,1E0,3.025792E-1,1E0,-1.0443454E-1,0E0,1E0,1E0,1E0,2.3523544E-1,1E0,1E0,1E0,2.7759817E-1,8.697579E-3,1E0,1E0,1E0,1E0,6.483405E-2,2.4762739E-1,-1.529482E-1,2.9435024E-2,9.583379E-3,1.4928785E-1,4.993065E-2,-2.2870168E-2,-8.188681E-2,-2.6824316E-1,-8.263926E-2,1.6952883E-1,-1.7296803E-1,1.0597345E-2,1.147256E-1,-1.2009961E-1,-1.8096639E-1,5.275752E-2,-8.818202E-2,2.718948E-1,2.3989287E-1,-2.236486E-2,7.3954426E-2,-2.202855E-1],"split_indices":[7,7,15,29,6,26,28,28,18,0,25,25,24,6,8,0,24,24,11,0,0,23,8,1,23,0,0,17,0,8,0,6,1,26,26,0,6,3,11,0,0,12,21,6,9,0,0,0,0,0,0,0,0,0,0,0,0,0,0,0,0,0,0,0,0,0,0,0,0],"split_type":[0,0,0,0,0,0,0,0,0,0,0,0,0,0,0,0,0,0,0,0,0,0,0,0,0,0,0,0,0,0,0,0,0,0,0,0,0,0,0,0,0,0,0,0,0,0,0,0,0,0,0,0,0,0,0,0,0,0,0,0,0,0,0,0,0,0,0,0,0],"sum_hessian":[3.3340228E2,1.331256E2,2.002767E2,1.2260705E2,1.0518542E1,1.8076721E2,1.9509485E1,8.923238E0,1.1368381E2,5.248997E0,5.269545E0,1.4117462E2,3.9592598E1,7.8224063E0,1.1687079E1,5.41367E0,3.5095682E0,1.0656985E2,7.1139584E0,1.7315872E0,3.537958E0,8.2481365E0,1.3292648E2,6.9558825E0,3.2636715E1,1.772343E0,6.050063E0,8.986215E0,2.700865E0,2.1471028E0,1.3624653E0,2.6162079E1,8.040777E1,2.4678702E0,4.646088E0,3.146133E0,5.102003E0,9.843414E1,3.4492336E1,5.0349956E0,1.9208874E0,2.4065796E1,8.570917E0,4.7859187E0,4.200296E0,1.1338111E0,1.0132918E0,1.1197556E1,1.4964522E1,7.257898E1,7.82879E0,1.4578784E0,1.0099919E0,2.4763565E0,2.1697314E0,2.977217E0,2.1247861E0,5.7832785E0,9.265086E1,2.905228E0,3.1587109E1,6.577771E0,1.7488026E1,2.88409E0,5.6868277E0,1.5734172E0,3.2125015E0,1.0209717E0,3.1793242E0],"tree_param":{"num_deleted":"0","num_feature":"30","num_nodes":"69","size_leaf_vector":"1"}},{"base_weights":[2.8991473E-3,-3.7310077E-3,2.0577446E-1,-4.7569555E-1,5.856342E-3,-1.9619413E-1,-1.6078538E-1,-1.634503E-1,2.9759232E-2,-7.934897E-2,1.1671786E-2,1.9571106E-1,-2.2553225E-1,6.994145E-3,2.088014E-1,-2.239645E-1,1.858124E-1,1.4735073E-1,-2.7249345E-1,4.6932867E-1,-1.5802512E-2,4.7780928E-1,-4.2793697E-1,5.0792657E-3,-1.0205075E-1,-1.5052807E-1,2.2831823E-1,-4.5185834E-3,-1.3843916E-1,-1.9498317E-1,2.4585688E-1,-3.1980577E-1,2.3912704E-5,2.1783647E-1,-7.712552E-2,5.079193E-2,-1.5512031E-1],"categories":[],"categories_nodes":[],"categories_segments":[],"categories_sizes":[],"default_left":[0,0,0,0,0,0,0,0,0,0,0,0,0,0,0,0,0,0,0,0,0,0,0,0,0,0,0,0,0,0,0,0,0,0,0,0,0],"id":27,"left_children":[1,3,-1,5,7,-1,9,11,13,-1,-1,15,17,19,21,23,-1,25,27,29,31,33,35,-1,-1,-1,-1,-1,-1,-1,-1,-1,-1,-1,-1,-1,-1],"loss_changes":[1.4838545E0,1.4731709E0,0E0,2.5876057E-1,1.297746E0,0E0,8.6278416E-2,9.28848E-1,1.1430371E0,0E0,0E0,1.2736232E0,6.406863E-1,2.643968E0,5.624149E0,1.16081044E-1,0E0,2.1685488E0,1.4918413E0,5.152914E0,3.992676E0,4.331948E0,6.1587155E-1,0E0,0E0,0E0,0E0,0E0,0E0,0E0,0E0,0E0,0E0,0E0,0E0,0E0,0E0],"parents":[2147483647,0,0,1,1,3,3,4,4,6,6,7,7,8,8,11,11,12,12,13,13,14,14,15,15,17,17,18,18,19,19,20,20,21,21,22,22],"right_children":[2,4,-1,6,8,-1,10,12,14,-1,-1,16,18,20,22,24,-1,26,28,30,32,34,36,-1,-1,-1,-1,-1,-1,-1,-1,-1,-1,-1,-1,-1,-1],"split_conditions":[1E0,0E0,2.0577446E-1,1E0,1E0,-1.9619413E-1,1E0,1E0,1E0,-7.934897E-2,1.1671786E-2,1E0,0E0,1E0,1E0,1E0,1.858124E-1,0E0,0E0,1E0,1E0,1E0,0E0,5.0792657E-3,-1.0205075E-1,-1.5052807E-1,2.2831823E-1,-4.5185834E-3,-1.3843916E-1,-1.9498317E-1,2.4585688E-1,-3.1980577E-1,2.3912704E-5,2.1783647E-1,-7.712552E-2,5.079193E-2,-1.5512031E-1],"split_indices":[5,13,0,25,27,0,14,2,1,0,0,25,25,2,14,3,0,6,6,16,4,18,25,0,0,0,0,0,0,0,0,0,0,0,0,0,0],"split_type":[0,0,0,0,0,0,0,0,0,0,0,0,0,0,0,0,0,0,0,0,0,0,0,0,0,0,0,0,0,0,0,0,0,0,0,0,0],"sum_hessian":[3.261051E2,3.2395493E2,2.150151E0,5.4817796E0,3.1847318E2,2.8126764E0,2.6691031E0,3.8677605E1,2.7979556E2,1.5431367E0,1.1259663E0,5.3829985E0,3.3294605E1,2.4915477E2,3.0640793E1,2.9410226E0,2.4419758E0,3.4850197E0,2.9809586E1,1.0787522E1,2.3836725E2,2.1715902E1,8.92489E0,1.235044E0,1.7059788E0,1.7823123E0,1.7027075E0,1.3076021E1,1.6733564E1,2.3668303E0,8.420692E0,2.566051E0,2.358012E2,1.6240398E1,5.4755054E0,1.0421513E0,7.882738E0],"tree_param":{"num_deleted":"0","num_feature":"30","num_nodes":"37","size_leaf_vector":"1"}},{"base_weights":[2.2525557E-3,-7.3584504E-2,5.2630045E-2,-3.9504994E-2,-4.7173023E-1,1.05650285E-2,4.6347648E-1,-1.4245899E-1,7.7865034E-2,-2.7389476E-1,4.1477527E-3,-8.773765E-2,1.0126877E-1,7.954952E-1,2.1777266E-1,-7.46479E-1,-6.577847E-2,2.944031E-1,-2.2312504E-1,-2.1230727E-1,4.0370852E-1,2.946306E-1,-1.4036602E-1,2.646908E-1,-5.2687936E-2,6.1782885E-2,2.5943908E-1,-2.614555E-2,2.603538E-1,-2.7716175E-1,2.9120797E-2,5.1333554E-2,-4.843982E-1,4.9803397E-1,-7.122266E-1,-3.998281E-1,2.6929107E-1,4.1336473E-2,1.4595968E-1,1.3851787E-1,-2.3870839E-1,6.2650844E-2,7.0465577E-1,9.127288E-2,-4.663654E-1,-1.7777549E-1,1.8241557E-1,-1.6802812E-1,4.01069E-2,-1.7650211E-1,3.48299E-2,1.7063531E-1,-1.8732221E-1,-3.5735458E-1,1.4948241E-1,-2.8077236E-1,-4.305589E-2,-1.2439878E-1,1.3420184E-1,-3.1158984E-1,-5.9467476E-2,-3.814224E-2,1.334635E-1,4.5484733E-2,2.5948066E-1,1.1455206E-1,-8.320882E-2,-2.1261188E-1,2.0470352E-1,3.9500613E-2,-1.366338E-1],"categories":[],"categories_nodes":[],"categories_segments":[],"categories_sizes":[],"default_left":[0,0,0,0,0,0,0,0,0,0,0,0,0,0,0,0,0,0,0,0,0,0,0,0,0,0,0,0,0,0,0,0,0,0,0,0,0,0,0,0,0,0,0,0,0,0,0,0,0,0,0,0,0,0,0,0,0,0,0,0,0,0,0,0,0,0,0,0,0,0,0],"id":28,"left_children":[1,3,5,7,9,11,13,15,17,-1,19,21,23,25,27,29,31,33,35,-1,37,-1,39,41,43,-1,-1,45,-1,-1,-1,47,49,51,53,55,-1,-1,-1,57,59,61,63,65,67,69,-1,-1,-1,-1,-1,-1,-1,-1,-1,-1,-1,-1,-1,-1,-1,-1,-1,-1,-1,-1,-1,-1,-1,-1,-1],"loss_changes":[1.2380273E0,1.7365228E0,3.3596518E0,1.4641178E0,2.126236E0,1.5926554E0,1.2999158E0,2.934177E0,3.7700174E0,0E0,1.9520057E0,4.967442E0,2.3499656E0,1.2028456E-1,1.8866215E0,1.1609793E0,2.8806663E0,7.218795E0,5.1811247E0,0E0,2.9629052E-2,0E0,2.2992935E0,3.9741423E0,2.9393563E0,0E0,0E0,1.0234286E0,0E0,0E0,0E0,2.4124343E0,8.690977E-1,2.6137195E0,4.098705E0,2.8507526E0,0E0,0E0,0E0,3.9736402E0,1.7842882E0,2.3835037E0,1.1212263E0,4.06062E0,4.0248914E0,7.865059E-1,0E0,0E0,0E0,0E0,0E0,0E0,0E0,0E0,0E0,0E0,0E0,0E0,0E0,0E0,0E0,0E0,0E0,0E0,0E0,0E0,0E0,0E0,0E0,0E0,0E0],"parents":[2147483647,0,0,1,1,2,2,3,3,4,4,5,5,6,6,7,7,8,8,10,10,11,11,12,12,13,13,14,14,15,15,16,16,17,17,18,18,20,20,22,22,23,23,24,24,27,27,31,31,32,32,33,33,34,34,35,35,39,39,40,40,41,41,42,42,43,43,44,44,45,45],"right_children":[2,4,6,8,10,12,14,16,18,-1,20,22,24,26,28,30,32,34,36,-1,38,-1,40,42,44,-1,-1,46,-1,-1,-1,48,50,52,54,56,-1,-1,-1,58,60,62,64,66,68,70,-1,-1,-1,-1,-1,-1,-1,-1,-1,-1,-1,-1,-1,-1,-1,-1,-1,-1,-1,-1,-1,-1,-1,-1,-1],"split_conditions":[1E0,0E0,0E0,1E0,1E0,0E0,1E0,1E0,1E0,-2.7389476E-1,1E0,0E0,1E0,1E0,1E0,1E0,1E0,1E0,1E0,-2.1230727E-1,1E0,2.946306E-1,1E0,1E0,1E0,6.1782885E-2,2.5943908E-1,1E0,2.603538E-1,-2.7716175E-1,2.9120797E-2,1E0,1E0,1E0,1E0,0E0,2.6929107E-1,4.1336473E-2,1.4595968E-1,1E0,1E0,1E0,1E0,1E0,1E0,1E0,1.8241557E-1,-1.6802812E-1,4.01069E-2,-1.7650211E-1,3.48299E-2,1.7063531E-1,-1.8732221E-1,-3.5735458E-1,1.4948241E-1,-2.8077236E-1,-4.305589E-2,-1.2439878E-1,1.3420184E-1,-3.1158984E-1,-5.9467476E-2,-3.814224E-2,1.334635E-1,4.5484733E-2,2.5948066E-1,1.1455206E-1,-8.320882E-2,-2.1261188E-1,2.0470352E-1,3.9500613E-2,-1.366338E-1],"split_indices":[7,7,15,28,6,14,28,24,12,0,25,28,23,19,8,13,26,14,14,0,23,0,24,25,8,0,0,26,0,0,0,0,13,13,13,14,0,0,0,23,11,6,24,14,26,17,0,0,0,0,0,0,0,0,0,0,0,0,0,0,0,0,0,0,0,0,0,0,0,0,0],"split_type":[0,0,0,0,0,0,0,0,0,0,0,0,0,0,0,0,0,0,0,0,0,0,0,0,0,0,0,0,0,0,0,0,0,0,0,0,0,0,0,0,0,0,0,0,0,0,0,0,0,0,0,0,0,0,0,0,0,0,0,0,0,0,0,0,0,0,0,0,0,0,0],"sum_hessian":[3.220365E2,1.2835432E2,1.9368217E2,1.1924657E2,9.107756E0,1.7662402E2,1.7058151E1,6.3410625E1,5.5835945E1,4.2492065E0,4.858549E0,8.477715E1,9.184688E1,6.3031325E0,1.0755019E1,6.1591864E0,5.725144E1,3.248645E1,2.3349495E1,1.4694586E0,3.3890905E0,3.1468244E0,